float W1[784][16] = {
{0.06928705, 0.030879788, 0.030399643, -0.050446182, -0.025414597, 0.06881733, 0.07947761, -0.038356155, 0.055757344, -0.068820015, -0.045813426, -0.026123721, 0.05864431, -0.00057284534, -0.067335635, 0.058278576},
{-0.000285618, 0.066219345, -0.008300148, 0.0045698434, 0.077924475, 0.04384245, -0.058244742, 0.08028622, -0.02271717, -0.05613932, 0.0020124465, 0.024504244, -0.012129195, 0.07512824, -0.0844569, 0.08569808},
{0.07236992, -0.03299419, 0.030495219, 0.08217399, 0.024287358, -0.05512067, 0.008287393, -0.031022172, -0.012029879, 0.06382097, 0.05296877, 0.006191388, 0.04002963, -0.051608708, 0.056997687, 0.068069994},
{0.042779297, 0.007312469, -0.002155885, 0.059010267, 0.011358999, 0.06899133, -0.081164874, -0.023706831, -0.020305172, -0.03941825, -0.063740775, -0.021173052, -0.08458171, -0.014796317, 0.08180341, -0.03650976},
{0.03853342, -0.0046530515, -0.07697572, 0.028303966, -0.02369789, 0.030787595, 0.048484907, 0.08019677, 0.0023536235, 0.047808543, -0.012290105, 0.021024436, -0.06668767, -0.043074455, 0.0032011122, -0.0503645},
{-0.03403223, 0.022473589, -0.068250015, 0.05624312, -0.017759316, 0.0769245, 0.054281652, 0.018303297, 0.043462425, 0.02626945, 0.06039831, -0.014784895, 0.065068364, -0.017334037, 0.074812934, -0.00612054},
{-0.066713415, -0.023014374, -0.075590484, -0.02059102, -0.06907072, -0.07016845, -0.08037554, -0.05368254, 0.03724756, 0.061508983, -0.07687491, -0.04833527, 0.01692453, -0.0296662, 0.0050450265, 0.003400378},
{-0.058970384, -0.050747104, -0.06264073, 0.06120287, -0.05891048, 0.04290095, 0.061054602, -0.044926073, -0.018787608, 0.04552698, 0.0350329, 0.048904777, -0.05892661, 0.060897082, -0.063348405, -0.04115193},
{0.06696135, 3.6999583e-05, -0.011992238, 0.04801376, 0.03420546, 0.056381524, 0.07769136, -0.04693059, -0.020916156, 0.06670615, -0.022431381, -0.00015981495, 0.055872247, -0.07986942, 0.008624069, 0.080067605},
{-0.08601924, 0.024337001, -0.044844143, 0.051509887, 0.009686001, -0.0017388612, -0.004206136, -0.03375489, -0.008397318, 0.0040543973, -0.06899775, 0.026241452, -0.045428578, -0.08001984, -0.047885936, -0.015905589},
{0.029982872, -0.013441518, 0.025695384, 0.016729102, 0.067239836, 0.08283427, -0.0848549, 0.08050099, -0.014516227, -0.025228027, -0.08593097, 0.0048572794, 0.083369344, -0.007843509, -0.029232185, 0.015938975},
{0.02662868, -0.08417429, 0.0084888935, 0.059470266, -0.084711626, -0.08168534, -0.0062638596, -0.06009733, -0.08122275, 0.061024264, 0.04074028, 0.03093341, -0.073046505, 0.036402702, -0.0566296, 0.022847518},
{0.04346652, -0.025151795, 0.09663361, 0.00032344979, -0.015756087, -0.088417426, -0.065119736, 0.028980885, -0.030088432, -0.0040551773, -0.029551435, -0.0053782533, -0.014915518, -0.067610316, -0.051082987, 0.07319813},
{0.04896212, 0.024539342, 0.10009138, -0.058015577, 0.022354247, -0.038667295, -0.0666849, -0.0778267, 0.022916866, 0.007645003, 0.059463263, 0.013088027, -0.014457055, -0.016934728, 0.035485007, 0.04262821},
{-0.0041568503, -0.05500142, -0.007347246, -0.008313092, 0.0156961, 0.14670883, 0.00554183, 0.057102412, 0.16081764, 0.04114404, -0.009297349, 0.08310865, -0.15997508, 0.03117486, 0.07474172, -0.07825529},
{0.070974335, -0.05924545, -0.018596645, -0.04065954, -0.0012760833, 0.13774666, 0.043237086, -0.025396226, 0.06925942, 0.010152101, 0.026027545, 0.0068056136, -0.12214978, -0.013567468, 0.012204288, -0.054969605},
{0.02216278, -0.06917451, 0.06250249, 0.07516886, -0.06000483, 0.042078927, -0.07174649, -0.053321514, 0.008887783, 0.040801287, -0.010232918, 0.05616346, -0.058894545, -0.016891286, 0.05868359, 0.038928762},
{-0.049629383, 0.050542235, 0.018695831, -0.07044228, 0.080537125, -0.07240304, 0.025877252, -0.034881406, -0.07898657, -0.025010236, 0.07713705, -0.01778403, -0.05691237, 0.03631553, -0.08254837, 0.070072666},
{0.039919004, -0.026354667, -0.03797886, 0.072157234, 0.08100827, -0.08081019, 0.06181325, 0.018601678, 0.05516155, 0.027760811, -0.06975062, -0.0011027306, 0.06834367, -0.032082554, 0.07092093, -0.004009776},
{-0.009386942, -0.02383621, 0.01844325, -0.038470853, 0.02347149, -0.056795668, -0.035833303, -0.015805349, 0.08386898, -0.0511519, 0.018838383, -0.05765562, -0.058936644, 0.053981245, -0.015726328, 0.047892675},
{-0.003027916, -0.023108542, -0.0012388378, -0.0774955, -0.010459006, 0.0010950044, -0.010256186, 0.030897543, 0.076800495, -0.049606796, 0.033818275, 0.08029871, 0.06181866, 0.0021683946, -0.0012641698, 0.0059412196},
{0.061757416, 0.021869376, -0.014354169, -0.084280156, -0.016770065, 0.0068832263, 0.022096999, 0.076045334, 0.00078465044, -0.058877736, -0.061382666, -0.03931751, -0.063698135, 0.010451265, -0.022024088, -0.0054766834},
{0.012471847, -0.023065269, -0.047550596, 0.036327958, -0.011064187, 0.08538143, -0.034836434, -0.01214885, 0.06655912, 0.08624974, -0.051492546, 0.0010838583, 0.025559545, -0.034933146, 0.020033963, -0.033765852},
{-0.08502401, -0.05879172, -0.043565888, -0.014036894, -0.07285616, 0.051377684, -0.04421664, 0.02876474, 0.026617281, 0.051255718, 0.018271111, 0.016269982, 0.037163116, -0.032567523, -0.038007233, -0.053073782},
{0.014355943, -0.050529003, 0.05677323, -0.012902945, 0.069824696, 0.0285663, 0.03226252, 0.05289203, 0.044309497, 0.02585803, 0.031540155, 0.05025491, 0.03282077, -0.030919202, -0.02610778, 0.047944307},
{-0.04011965, 0.039023206, -0.016507179, -0.039571993, 0.0011511296, -0.042048514, 0.08291483, -0.014855385, 0.017525047, -0.05699122, -0.025752127, 0.076325834, 0.06330408, -0.036701184, -0.050039817, -0.00050304085},
{-0.073056504, 0.040234074, 0.009939179, 0.064704254, 0.061356843, 0.047441497, 0.04522468, 0.04329151, 0.06476988, -0.019579947, 0.06714401, -0.05759911, 0.04886587, 0.08118498, -0.02470719, 0.01307226},
{0.002912514, -0.0858067, 0.020866789, 0.027919322, 0.0733652, 0.049396887, -0.06576916, 0.05664441, 0.015974447, -0.008479372, 0.039356798, 0.08256921, -0.023337752, 0.04310976, 0.016912125, -0.07352431},
{0.0037022308, -0.00017274171, 0.0024545118, -0.05549924, 0.075567126, -0.07852505, -0.08027502, -0.02831582, -0.084440276, 0.008302838, -0.023884423, 0.00013478845, -0.059584588, 0.04701212, -0.040637847, 0.04632269},
{-0.054688327, -0.07509814, 0.06407997, 0.0186565, -0.0076791495, -0.012358531, 0.059160754, 0.06761946, -0.071223296, 0.039181292, 0.051414534, 0.00951235, 0.013106778, 0.0057770684, 0.056065902, 0.062646344},
{-0.07789813, 0.015023872, 0.0833966, 0.025473587, -0.045630407, -0.08225637, 0.074994, -0.05476784, 0.009095952, -0.074438885, -0.028397027, 0.015337534, 0.031280205, 0.0018010959, 0.05761437, -0.06047258},
{-0.055011626, -0.07385581, 0.043441266, -0.08471487, -0.022056445, 0.060591713, -0.08540832, 0.009583257, -0.041727837, -0.021765582, -0.037571523, -0.07095486, 0.01749476, -0.0011031404, 0.070727214, -0.038343914},
{-0.08968125, 0.056830533, -0.024846511, -0.012764863, 0.046384886, -0.032647505, 0.019640993, -0.102346554, -0.062839895, -0.07879666, -0.029493172, 0.10791672, -0.024923107, 0.0041873828, 0.07353459, 0.121950746},
{-0.11393175, -0.02528925, 0.17286581, 0.058631, -0.065885365, -0.04608536, -0.065561615, -0.09072766, -0.09025232, 0.020272072, 0.06361069, 0.046197623, 0.17555033, -0.05197269, -0.028956484, 0.11501884},
{-0.059410267, 0.019502247, 0.034150597, -0.1159804, 0.043672353, -0.10916783, -0.084913164, -0.03940492, -0.17969443, 0.12802212, 0.040645577, 0.17368746, 0.0005233751, -0.11571779, -0.0773433, 0.07227055},
{-0.10819812, 0.042051364, 0.1865704, 0.02847508, -0.061901003, -0.089523315, -0.13493283, -0.16450834, -0.07192053, 0.24970046, 0.017373739, 0.095965885, 0.11674373, -0.15497664, -0.095741205, 0.065520376},
{-0.120774224, -0.0002351235, 0.19555752, -0.027842434, 0.05654198, -0.015830837, -0.11829749, -0.13770744, -0.16099349, 0.23917809, -0.11109068, 0.19469996, 0.18520865, -0.09713812, -0.036821604, 0.2007622},
{-0.12802778, 0.13916004, 0.13331515, 0.09583041, 0.06529535, 0.00706484, -0.15904947, -0.0375694, -0.25663885, 0.08048156, 0.04737425, 0.15181988, 0.13352324, -0.14829527, -0.08729888, 0.16243488},
{-0.09115854, 0.051946882, 0.18355645, 0.12910962, 0.030733678, -0.03134858, -0.1490104, -0.039786164, -0.15260445, 0.049340587, 0.017513275, 0.18224461, 0.17237717, -0.011689097, -0.1512099, 0.2818444},
{-0.16487493, -0.0688155, 0.08624189, 0.058118712, 0.0708128, -0.0951946, -0.19107057, -0.09775616, -0.30014598, -0.014762217, 0.14574401, 0.18158068, 0.16173133, -0.0304002, -0.07871565, 0.26140603},
{-0.28537875, -0.014390921, 0.24373895, -0.064596325, 0.0997279, -0.24606591, -0.16260828, -0.22908212, -0.2116423, -0.040174007, 0.12892891, 0.21445975, 0.24704035, -0.18337277, -0.20349018, 0.21563447},
{-0.27169868, -0.012206069, 0.104728825, 0.16428256, 0.06551214, -0.19537523, -0.12153121, -0.2421925, -0.12289156, 0.0683185, 0.005357743, 0.21546033, 0.09569818, -0.24730021, -0.22878374, 0.15025899},
{-0.026314989, 0.018858386, -0.036780432, 0.03622627, 0.18566653, 0.20923607, -0.05571016, -0.007987934, 0.0380212, -0.0888576, -0.086988285, 0.116850235, 0.02884012, -0.11577359, -0.13703856, -0.094734326},
{0.04836235, 0.15018792, 0.09946425, -0.09828873, 0.14498931, 0.22836879, -0.18091121, -0.095295265, -0.018587807, 0.021851603, -0.03544533, 0.2877522, -0.058534924, -0.24244979, -0.0955252, 0.1825769},
{-0.19034807, 0.26126862, 0.16649087, -0.20140412, 0.17001463, 0.15325308, -0.22419871, -0.24866657, 0.18472014, 0.03673482, 0.095426835, 0.3822372, -0.11578087, -0.03960198, 0.0048929173, 0.17909844},
{-0.14953388, 0.31006762, 0.17810129, -0.06034881, 0.09024511, -0.06982209, -0.39803714, -0.23385139, -0.12840098, 0.024552017, -0.009246681, 0.42899227, 0.13194531, -0.056656424, -0.14767207, 0.118736945},
{-0.054987684, 0.08911959, 0.117811, 0.16426575, -0.12077558, -0.099259995, -0.2628841, -0.06763301, -0.33724242, 0.17737506, -0.09001136, 0.3482038, 0.2290489, -0.22116582, -0.12459761, 0.2650427},
{-0.12085992, 0.08517288, 0.15037234, 0.09733873, -0.08476355, -0.17523181, -0.17531885, 0.01165789, -0.28342757, 0.16559361, -0.15693839, 0.31755105, 0.20230383, -0.086602375, -0.15610729, 0.11929618},
{-0.077173896, 0.001070872, 0.22879112, 0.03626944, -0.065781504, -0.10873917, -0.254541, -0.05902525, -0.17090888, 0.21701501, -0.17100924, 0.14735301, 0.14157285, -0.05215612, -0.18196507, 0.20146751},
{0.006958668, -0.078590855, 0.12905778, 0.087102, -0.09342888, -0.099526644, -0.13164872, -0.07694885, -0.1289536, 0.045069493, -0.04834616, 0.15003188, 0.15343606, -0.14097469, -0.07034512, 0.09355423},
{-0.093663946, -0.03411517, 0.058999065, -0.04096997, 0.02638116, -0.14552017, -0.08758752, -0.18289146, -0.2059324, 0.16005976, -0.009679451, 0.09708242, 0.120660625, -0.10556763, -0.06858625, 0.08645384},
{-0.020709159, 0.023980886, 0.20757462, -0.1578931, 0.06679642, 0.07097453, -0.04889348, -0.052491106, -0.1755548, 0.10667982, -0.064886406, 0.030005328, 0.05758404, 0.008188605, -0.12774451, 0.09945326},
{-0.058061823, 0.059836328, -0.021976292, -0.07169555, -0.07096923, -0.0055447817, -0.040225614, 0.03545384, 0.06893131, -0.07541727, -0.006422393, -0.06677309, 0.070075825, 0.034438446, -0.027231015, -0.05378008},
{0.037260033, -0.0039078966, 0.016712107, -0.08173818, -0.08291904, -0.013865128, 0.053547323, 0.040434122, -0.05054368, 0.071213886, 0.003237322, 0.044179022, 0.049030185, -0.056426056, -0.04275613, -0.04882906},
{-0.02005773, -0.01528465, 0.051257, -0.03660922, 0.077045545, 0.00050582737, 0.05394022, -0.008121818, -0.02605959, -0.08573207, 0.05689682, 0.017211266, -0.06677614, 0.05918823, 0.020541646, 0.057761416},
{-0.039135873, -0.064990185, 0.02242963, -0.07056532, 0.007850818, -0.08406595, -0.046124466, -0.043176785, 0.018388428, 0.012885131, 0.08494794, 0.03229318, -0.06377837, -0.009287193, -0.077647135, 0.037750915},
{-0.054229785, 0.07444814, -0.07252404, -0.029746003, 0.005437292, -0.06601708, 0.06648153, 0.04134868, -0.017734312, -0.016491443, -0.0740224, -0.08221644, 0.06241083, -0.07759316, 3.3535063e-05, -0.009380788},
{-0.016617253, 0.06072308, -0.08221433, 0.062588826, 0.0076533183, 0.050626993, -0.0050006956, -0.02310466, 0.07238537, -0.017442748, 0.057808638, 0.0011111349, -0.028281238, -0.024823107, 0.005883567, -0.05985778},
{-0.038021147, -0.08328735, -0.004942937, 0.059531257, 0.047696102, 0.043101136, -0.041074805, -0.031223638, -0.093911014, -0.02553404, -0.053165764, 0.090251654, 0.09669872, -0.08426663, -0.052406076, -0.017406063},
{0.0072204038, 0.056106105, -0.0035468042, -0.11274246, 0.02350894, -0.12724939, -0.09737279, -0.13059247, 0.0938094, -0.06282982, -0.00521993, -0.0068762987, 0.010003189, 0.08078106, 0.04596476, 0.17705894},
{-0.037295483, -0.015489527, 0.02466542, -0.0032483374, 0.079106204, -0.011805243, -0.09213255, -0.10638488, -0.04427905, -0.004855002, -0.057559803, 0.028253417, 0.058915216, -0.004410158, -0.021519916, 0.1875694},
{-0.1056834, 0.09155307, 0.045584816, 0.029917719, -0.177381, -0.025521817, -0.14507611, -0.00084945024, -0.020612204, 0.043724712, -0.045613337, 0.1967088, 0.07312853, -0.018677885, 0.0775049, 0.010819072},
{0.027140474, 0.02607233, 0.039567143, 0.25358155, 0.005543564, -0.09549562, -0.16297099, -0.1342744, -0.17011355, 0.06933629, -0.011558528, 0.23677574, 0.24910738, -0.11524674, -0.11849614, 0.23054281},
{-0.07303712, 0.06519936, 0.17563705, 0.18130378, -0.052808806, -0.22790611, -0.12649328, -0.1930295, -0.33638713, 0.19082285, -0.05225844, 0.24916679, 0.25531167, -0.15105633, -0.22271742, 0.28185916},
{-0.23379478, 0.0284423, 0.2554361, 0.22461383, -0.011453349, -0.096927255, -0.3611556, -0.19054313, -0.42087907, 0.23039003, 0.020957941, 0.19852391, 0.19733293, -0.10106852, -0.2229886, 0.2222165},
{-0.27812296, -0.059603304, 0.33416146, 0.026275298, -0.21738641, 0.003159159, -0.33448714, -0.26164725, -0.25601667, 0.33566397, -0.1501857, -0.0653052, 0.10715327, 0.028691437, -0.21614946, 0.14650224},
{-0.30629128, 0.04876183, 0.4584491, -0.023557093, -0.13664259, -0.017471444, -0.3354114, -0.37363282, -0.36152318, 0.31040022, -0.18236983, 0.04367264, 0.02403755, -0.044675454, -0.26960376, 0.30208024},
{-0.22858174, 0.05714057, 0.4267939, 0.027910808, -0.12657635, 0.10079025, -0.4847753, -0.29104018, -0.3034411, 0.30897143, -0.027903182, 0.18425119, 0.12038538, -0.05064398, -0.27875072, 0.24512316},
{-0.20550567, -0.035846625, 0.3794798, -0.013808843, -0.09865021, 0.031346135, -0.3704419, -0.18446356, -0.233501, 0.24268371, -0.047672115, 0.10599875, 0.079487145, -0.096872225, -0.36493713, 0.30473834},
{-0.12038401, 0.17638692, 0.21426193, -0.03252765, 0.011676403, 0.15838249, -0.16047573, -0.06832821, -0.093476914, 0.1155514, -0.13065216, 0.22816955, 0.07325107, -0.2114361, -0.51463526, 0.21402766},
{0.012873217, 0.29403684, 0.24546143, 0.055210613, -0.2463365, 0.08947822, -0.124265596, -0.13657047, -0.14274362, 0.06061415, -0.28311184, 0.11967828, 0.03746402, -0.18681107, -0.474904, 0.1052265},
{0.0924273, 0.14199068, 0.25653455, -0.06833921, -0.16820416, 0.24863227, -0.23729175, 0.012684297, -0.014656795, 0.1149402, -0.24777347, 0.2811848, -0.09880546, -0.11317701, -0.15542486, 0.116643056},
{0.09628472, 0.24123779, 0.29376233, -0.07153723, -0.030414285, 0.18363996, -0.32583278, -0.06546747, -0.042709354, 0.12294959, -0.19040729, 0.4031859, -0.02775788, -0.11881005, -0.073651895, 0.09959926},
{0.05250389, 0.25465223, 0.1910445, 0.02114534, 0.07360261, -0.006175835, -0.15636253, -0.12576431, -0.098708384, 0.15291537, -0.06900988, 0.351111, 0.056243867, 0.07347971, -0.046836678, 0.037773468},
{-0.025583604, 0.06918514, 0.117593154, 0.031040039, -0.017890127, -0.19260581, -0.14481825, -0.23711622, -0.24278153, 0.17275245, 0.056701012, 0.44330868, 0.13437276, 0.096834905, -0.042663313, 0.092772305},
{-0.023571553, -0.1121057, 0.108772695, 0.110402964, -0.041617267, -0.32848042, -0.09857618, -0.19592746, -0.15778935, -0.030509489, -0.06714187, 0.43799195, 0.20640756, -0.0693871, 0.14286506, 0.13243155},
{0.004722122, -0.008077346, 0.123772405, 0.08445277, -0.014351493, -0.36718467, -0.24107772, -0.16613626, -0.13284712, 0.17303385, -0.064257376, 0.26918098, 0.042441845, -0.074662276, -0.04318922, 0.17713918},
{-0.11611908, -0.0909285, 0.104307555, 0.15677719, -0.08275541, -0.3668835, -0.1380016, -0.20318718, -0.19181669, 0.18150389, -0.12896158, 0.26312846, 0.19834848, -0.093641855, -0.13524425, 0.15706104},
{-0.027093844, 0.042989347, 0.10873599, 0.19907062, -0.064545035, -0.32008132, -0.034748103, -0.2046811, -0.23372492, 0.13556677, -0.06289696, 0.16199179, 0.31089163, -0.1493687, -0.16609377, 0.12635124},
{-0.07283237, 0.09004806, 0.111859225, 0.09344612, -0.00010647334, -0.16619106, -0.12266406, -0.114493564, -0.2144436, 0.22642455, -0.12710328, 0.08711055, 0.09074473, -0.06238333, -0.26407737, 0.1623786},
{-0.14368804, 0.11898696, 0.091982365, 0.08376005, 0.071030304, -0.008846031, -0.11195008, 0.0059002847, -0.15108378, 0.10375154, -0.022442695, 0.093594134, -0.14753261, 0.08344232, -0.018093804, -0.039424352},
{-0.13058168, 0.007087305, 0.0036482485, -0.065037005, 0.08546629, 0.06781572, -0.18528475, -0.072983414, -0.07141297, 0.099251285, -0.05770118, -0.038180117, -0.015354322, 0.11007933, -0.112087786, -0.07165162},
{-0.053606123, 0.022824846, 0.02975519, 0.022186443, -0.005004458, 0.042206407, -0.07302334, 0.045808613, -0.014762595, -0.0234681, 0.03267128, 0.012954421, 0.04818128, -0.0178684, -0.05146665, 0.0017061606},
{0.03016571, -0.08211828, -0.016436525, -0.02862785, 0.014829226, -0.054201268, 0.039922714, -0.038991053, 0.045773685, -0.08283032, -0.059593283, 0.0028179288, -0.022807732, -0.02463742, 0.02139058, 0.07107979},
{0.030406564, -0.0510531, 0.03576178, -0.03924029, -0.0347849, 0.065584585, 0.067670435, 0.0774069, 0.07280585, 0.06257278, 0.058295995, -0.052141562, 0.0058395937, 0.0554664, -0.027276397, -0.06570633},
{-0.034669828, 0.04573229, -0.004875116, -0.07153857, 0.06081514, 0.058754966, 0.07554571, 0.018133737, -0.08172478, 0.071118385, 0.08143613, -0.035237227, 0.06045051, 0.02657549, 0.001946561, 0.07918541},
{0.1612881, 0.019035863, 0.029753322, -0.14019983, 0.017451553, 0.07500861, -0.12364563, 0.15423164, -0.010369684, -0.083137915, -0.1104655, 0.015510122, -0.06488797, 0.059695072, 0.04541059, -0.07278135},
{0.012117937, -0.102258936, 0.12440405, -0.16131693, 0.03841022, -0.061001003, -0.17101608, -0.032020163, -0.053477094, -0.12911902, -0.062077288, 0.10796333, 0.018013617, -0.012084441, 0.058531255, 0.15372847},
{0.010823253, -0.16774015, 0.038723905, -0.08376217, -0.03511969, -0.083129495, -0.093541235, -0.026433906, -0.178851, 0.15198109, 0.069451585, 0.11830843, 0.24735631, -0.0113997515, -0.012675593, 0.022100711},
{0.054356314, -0.18492047, 0.2203515, 0.021713391, -0.095508814, 0.14519024, 0.06405862, -0.098181486, 0.112140514, 0.06518912, 0.044627905, 0.20041089, -0.111048386, 0.04167614, -0.06457023, -0.043129932},
{0.092510015, -0.0748236, 0.21030158, 0.06267384, -0.015769636, 0.028549785, -0.11537541, -0.063495025, -0.10143285, 0.04665394, 0.10787991, 0.23304999, 0.04479441, 0.023522362, -0.19253443, 0.087665044},
{0.021405077, -0.044915285, 0.29779062, 0.043801796, -0.08888383, -0.072062716, -0.09230665, -0.33723184, -0.15209368, 0.1790646, 0.005920481, 0.26934123, -0.027504193, 0.06684277, -0.23070917, 0.026516538},
{-0.104015656, -0.10256629, 0.24770762, -0.07984797, 0.083408244, 0.12536284, -0.016493771, -0.49799946, -0.30800718, 0.027147934, 0.07707961, 0.21356207, -0.00039334907, 0.14295277, -0.24564956, 0.066970564},
{-0.26288274, -0.04578181, 0.4064801, -0.11385697, -0.0121951075, 0.050010204, -0.22553961, -0.34219995, -0.3277544, 0.140356, -0.029574933, 0.08945523, -0.028300619, 0.15858503, -0.25603077, 0.18702362},
{-0.29191858, -0.08774477, 0.34130743, -0.13648017, 0.00930023, 0.13941406, -0.024398237, -0.31864604, -0.25152007, 0.20465562, -0.09395629, 0.14399758, -0.021623988, 0.2017786, -0.1928955, 0.15492503},
{-0.2396957, -0.062718056, 0.28973097, 0.041106235, -0.030753423, 0.2423285, -0.077458575, -0.4276736, -0.20145172, 0.19107623, -0.046953015, 0.17747372, -0.04217756, 0.09371935, -0.39654475, 0.11754641},
{-0.16845703, 0.0432006, 0.3127008, -0.09287366, 0.15487719, 0.2836844, 0.044485725, -0.37015703, -0.05516565, 0.09166562, 0.050918058, 0.22895502, -0.08365006, 0.17384084, -0.42679688, 0.05121747},
{-0.24194501, 0.1399602, 0.29852477, -0.17366083, 0.055705406, 0.3136415, -0.11916216, -0.3567983, -0.0733479, 0.040775437, -0.13676089, 0.3588745, -0.08604268, 0.08675187, -0.5211757, 0.15075192},
{-0.19775674, 0.05985921, 0.22237805, -0.006040609, -0.065702066, 0.11248211, -0.032204654, -0.2822839, -0.07631041, 0.11653039, 0.037053607, 0.36336076, -0.1704183, -0.01270058, -0.36526883, 0.08330311},
{-0.057752304, 0.23671727, 0.22203116, -0.12236399, 0.037703097, 0.20675434, 0.016930075, -0.14592619, 0.008711089, 0.035021823, 0.07894606, 0.3368156, -0.10448561, 0.0038287074, -0.2108638, 0.12135738},
{0.106476024, 0.1921761, 0.20352581, -0.20175411, -0.0096669905, 0.05154016, 0.046193365, -0.15764359, -0.022739677, 0.1214775, -0.04780046, 0.36876875, -0.07756246, -0.010890003, -0.2253603, 0.11377309},
{0.037196312, 0.25283006, 0.18990935, -0.009595041, -0.044041812, -0.19129118, 0.09193125, -0.05939643, 0.10097944, 0.07764733, 0.041916564, 0.3290635, 0.0037099018, 0.088677436, -0.008164417, -0.04732047},
{0.016585613, 0.10322629, 0.09557414, -0.037696734, 0.012167161, -0.3001565, 0.14225328, -0.11875628, -0.06009222, 0.13521709, 0.031060519, 0.47632465, -0.033355072, -0.03334488, -0.025190849, -0.08381053},
{0.123609155, 0.120158345, 0.16711111, 0.013088951, -0.11302293, -0.25113204, 0.03875332, -0.1139598, -0.1338657, 0.16220264, -0.027013902, 0.5800543, 0.087672606, -0.00345459, 0.13204081, -0.004430121},
{0.105123796, -0.05046706, 0.09568394, 0.023577737, 0.025870217, -0.30597556, 0.10904297, 0.027780175, -0.07242941, 0.07418485, 0.06535091, 0.4274531, 0.09962647, 0.015479107, -0.033053648, -0.1409971},
{0.0744822, -0.12902057, 0.075424254, 0.19946155, 0.024699187, -0.43907592, 0.009844585, -0.044036247, -0.30140308, 0.10591222, 0.05794775, 0.2671878, 0.3089507, -0.00077519316, 0.17386624, -0.120906845},
{-0.0047870157, -0.09516383, -0.013853083, 0.13918354, -0.10009622, -0.33550182, -0.052059222, 0.123042785, -0.18796577, 0.1249264, -0.07924297, 0.16748083, 0.3181273, 0.053810455, 0.12760268, -0.0718538},
{-0.17766555, -0.10767134, -0.06464933, 0.11656254, -0.02378024, -0.29847413, -0.1103681, 0.052412476, -0.27262548, 0.15289025, -0.04994347, 0.13954791, 0.23981917, -0.109289214, -0.10710905, 0.093556754},
{-0.11033494, -0.15814373, 0.055185206, 0.07191194, 0.012352622, -0.114047, -0.11621266, -0.14681928, -0.3281322, 0.16708262, -0.06199522, 0.2283741, 0.16639985, 0.112475954, -0.078881465, -0.014097589},
{0.023106633, 0.02197026, -0.07750887, -0.12344249, 0.09291482, -0.0105711855, -0.19653566, -0.02891238, 0.2011352, -0.007432486, 0.14286354, 0.029712735, -0.09359956, 0.22591923, -0.14861761, -0.079204485},
{-0.030768238, 0.009210045, 0.05865574, 0.08441238, 0.024691926, -0.08258041, -0.1320283, -0.05552297, 0.006601095, 0.14855343, 0.08142134, 0.1518546, 0.17584127, 0.104219005, -0.0158762, 0.023635445},
{-0.018975526, -0.025637448, -0.059496112, 0.05398792, 0.05515042, 0.053901076, 0.065513864, 0.022553988, 0.051735252, -0.020704597, -0.08413345, -0.003239885, -0.0012948737, -0.065629005, -0.065724455, -0.0405203},
{0.029672809, 0.051276565, -0.010867931, 0.026168942, 0.03307707, 0.02712904, -0.010675542, 0.040134773, -0.077896334, -0.05643256, 0.001255855, 0.037283182, -0.004450828, -0.07771135, 0.027469456, -0.022927277},
{0.09199982, -0.078788504, -0.0608406, -0.0648492, 0.008174422, 0.013120825, 0.117675446, 0.024663934, -0.02355007, 0.0016513772, 0.017971601, 0.031315617, -0.07160047, -0.06418507, 0.039231725, -0.005099759},
{0.028445166, -0.032610595, 0.14859708, -0.04746329, 0.11314278, 0.07491197, 0.076773785, 0.18944477, 0.16306019, -0.13888074, -0.08196161, 0.04743933, -0.15458713, -0.082478784, 0.041396037, -0.10610083},
{0.19665098, -0.050660223, 0.039250363, -0.13644333, 0.115313955, 0.07345586, 0.10746529, 0.08955595, 0.04743208, -0.12750447, -0.0041391663, 0.14044486, -0.018742418, 0.06361666, 0.04393568, -0.089392275},
{0.06563537, -0.07943536, 0.06755411, 0.12974045, -0.08910608, 0.03368878, 0.054241017, 0.0055177705, 0.007721637, -0.009810143, 0.0025789603, 0.09706145, 0.058425587, -0.117053226, 0.19039488, -0.14521357},
{0.14047107, -0.01777645, 0.30692637, -0.044707872, -0.07805788, 0.101202354, 0.020171585, -0.0030903844, 0.026855841, 0.0665182, 0.022504361, 0.0077161305, -0.22374171, -0.158585, 0.10623095, -0.06871769},
{0.09113708, -0.045105793, 0.25234652, -0.016870461, -0.09080285, 0.2877131, -0.0020075606, 8.3335624e-05, 0.04292794, 0.26057333, -0.0751756, -0.035300773, -0.29405814, 0.10931674, -0.035392173, -0.104832046},
{0.053033024, -0.06317326, 0.13108331, 0.020692224, 0.006984259, 0.19266157, 0.015585854, -0.14844675, -0.12664732, 0.1738293, -0.009846396, 0.06881785, -0.056288347, 0.088300265, -0.06635957, 0.057020493},
{-0.016763344, -0.07150125, 0.20057735, -0.06837441, 0.043916665, 0.21537633, 0.17285112, -0.1797747, -0.07965986, 0.21447377, -0.06369918, 0.10072142, -0.22995451, -0.0006588899, -0.12838191, 0.013892085},
{-0.06329014, -0.06468855, 0.15417272, -0.11405261, 0.0009821658, 0.24804632, 0.09990902, -0.110596396, -0.025024446, 0.10565534, -0.15971181, 0.1225187, -0.14062996, 0.20849791, -0.30666336, 0.0012276014},
{-0.007899488, -0.019705823, 0.20581163, -0.11525775, 0.059250206, 0.22778124, 0.010449734, -0.18261811, -0.103001095, 0.16930364, -0.0356599, 0.16253623, -0.201136, 0.08322828, -0.1265656, 0.14392574},
{-0.117596924, -0.0777078, 0.072729245, -0.118076876, 0.12653157, 0.29580677, 0.16581845, -0.2517283, -0.05212809, 0.100223884, 0.10211142, 0.17119536, -0.16974825, 0.19503073, -0.07477544, 0.10894885},
{-0.00479694, -0.104756445, 0.10468273, -0.11130589, 0.11189867, 0.21251841, 0.20971535, -0.053427786, 0.046195418, 0.23667653, 0.08786421, 0.02925307, -0.06439009, 0.12073983, -0.077482365, 0.07673048},
{0.01438201, 0.052758362, 0.017637126, -0.07826577, 0.07557048, 0.3570225, 0.06459223, -0.04518658, 0.041021783, 0.22303207, -0.020920936, 0.14075777, 0.012707008, 0.092064366, -0.08687522, 0.09180191},
{0.062128216, -0.0133811245, 0.05651518, -0.098661676, 0.122085325, 0.15729198, 0.1033458, -0.086897515, 0.027508851, 0.17186181, 0.04761253, -0.015787154, -0.04909422, 0.08083435, -0.16217679, 0.16848335},
{0.04449639, 0.020684995, -0.021506244, -0.2541408, 0.13436972, 0.1100459, 0.14403716, -0.02808907, -0.0063062436, 0.22228818, 0.0051933266, 0.19846702, 0.021594165, 0.10728535, -0.05975373, 0.12479869},
{0.14161979, 0.03435331, -0.008224709, -0.24715887, -0.009791249, 0.034583915, 0.18308903, -0.055313986, 0.050546598, 0.21238084, -0.07170463, 0.08441064, 0.153616, 0.06550972, -0.04508473, 0.08561091},
{0.04438919, 0.13123524, 0.04953804, -0.01404219, 0.0018859943, -0.11059312, 0.18909824, 0.017074019, -0.024733467, 0.18509367, 0.038387287, 0.11815517, 0.09616469, 0.07195224, -0.020175816, 0.15550354},
{0.047732167, 0.16472352, 0.04959921, -0.17335789, 0.013721577, -0.2058249, 0.20688036, -0.019017905, 0.07688025, 0.1953776, 0.06440066, 0.2417947, -0.0060366616, 0.16494969, 0.028631086, 0.064850114},
{0.13230652, 0.111907475, 0.06768798, -0.012925344, -0.09276583, -0.25730297, 0.2208655, 0.1451392, -0.0013453646, 0.049561962, 0.030701462, 0.0943606, 0.06336599, 0.0027039032, 0.055661224, 0.0072041834},
{0.07296319, 0.02018823, -0.07396775, 0.11537453, -0.1326537, -0.19053802, 0.11078405, 0.035393823, 0.00691664, 0.1983572, -0.07325517, -0.022073451, 0.11980684, -0.05548862, -0.06783829, 0.024596404},
{0.15426378, 0.085867755, -0.036667313, 0.051478274, -0.07253134, -0.27112675, 0.08700837, 0.11537177, -0.09947034, -0.0034700623, -0.087221675, 0.1845138, 0.29807013, 0.04706799, 0.080311224, -0.092873},
{-0.029716223, -0.0639626, -0.048805043, 0.060797743, -0.039497696, -0.30789724, 0.082374625, 0.071010046, 0.025874754, 0.06771442, -0.032864194, 0.18536842, 0.340623, -0.060250673, 0.08465259, 0.020420972},
{0.12193537, 0.04093868, -0.11392513, 0.19555007, -0.14649828, -0.44854894, -0.10090747, 0.06576178, -0.26778767, 0.020720424, -0.0062594675, 0.037104983, 0.5246465, -0.04807901, 0.042151287, 0.0030484858},
{0.02928317, -0.11081973, -0.23409311, -0.0077786446, 0.05859134, -0.12702765, 0.10243283, -0.06968293, -0.11917869, 0.04148459, 0.064677246, -0.05235685, 0.40831432, 0.16815324, 0.16412878, -0.26752055},
{-0.04014347, -0.1640348, -0.11620578, -0.09175255, 0.18905106, -0.09652932, 0.0677844, 0.029779166, -0.16192685, 0.20871422, 0.16271375, 0.046479475, 0.07869157, 0.3018998, 0.14536348, -0.26238835},
{-0.05752513, -0.17690648, 0.027485201, -0.13755478, 0.16917674, -0.07845562, 0.13527608, 0.07913869, -0.17600073, 0.1324256, 0.0036638116, 0.182979, -0.064958364, 0.09064112, 0.041963127, 0.06938343},
{-0.20439672, -0.043505583, 0.06693989, -0.11270695, -0.026630001, -0.15190677, 0.05741872, -0.03479071, 0.04070382, 0.12550117, -0.11003361, 0.047550365, 0.09524865, -0.021775879, -0.03233008, 0.15078866},
{0.04515694, 0.0038912594, -0.042061254, 0.042484164, -0.05906538, 0.021472119, -0.04861645, -0.07115101, -0.0738899, -0.060314316, -0.0690675, 0.031211182, 0.05434437, -0.0334874, 0.042674318, -0.062043786},
{0.041471943, 0.029273726, -0.036679506, 0.0400773, 0.02430462, 0.08612013, 0.05713871, -0.0016274303, 0.05768314, -0.053264797, 0.073946536, -0.06563388, -0.02023144, 0.080410495, -0.05942783, -0.020532958},
{0.0452259, 0.075656034, 0.2245543, -0.0064514093, -0.12061014, 0.045542207, -0.16239773, 0.14793247, -0.06760093, 0.12568536, -0.14447859, -0.049860407, -0.065750085, -0.0030846116, -0.00026860842, -0.0034999822},
{0.09767119, 0.09207501, 0.08915599, -0.19037639, 0.0050349627, 0.33709002, -0.019287365, 0.11931138, 0.17735767, 0.071653925, 0.07464115, 0.04454062, -0.23022594, 0.04211769, 0.12084469, -0.07212835},
{0.081866294, 0.09673365, 0.18269077, -0.06976481, -0.18048497, 0.25660327, 0.042299554, -0.02436337, 0.14386338, 0.11243529, -0.14574674, 0.0360176, -0.23871648, -0.13172433, 0.23693009, -0.2556398},
{0.30911246, -0.06609066, 0.13478446, 0.03856684, -0.083481066, 0.21129607, 0.22249217, 0.10425013, 0.07298637, 0.00683282, -0.0783858, 0.18937612, -0.20191166, -0.07475328, 0.029534338, -0.29150805},
{0.19384076, 0.00026364563, 0.2120385, -0.017193276, -0.026006525, 0.16141967, 0.11575527, 0.082345866, 0.09214172, -0.00867838, -0.13586792, 0.13650915, -0.06752923, -0.03891544, -0.0025108105, -0.20948781},
{0.12476808, -0.045872394, 0.1499735, -0.049266074, 0.023330463, 0.0484979, 0.24064153, -0.0042739185, 0.04954868, 0.019131444, -0.16605215, 0.038666613, -0.090599336, 0.11661742, -0.08750595, -0.054113835},
{0.0041875923, -0.013268409, 0.11655689, 0.20518324, -0.08799735, 0.141495, 0.16090298, -0.13553217, -0.017757855, 0.11721618, -0.121765904, 0.10282489, -0.09705527, 0.04906412, -0.13675416, -0.023172379},
{0.05662711, -0.0011883841, 0.09337022, 0.029659396, 0.034124482, 0.067647286, 0.12290893, -0.081598446, 0.03663772, -0.0046755276, -0.14669938, 0.084850706, 0.056216598, 0.13818598, -0.1131947, -0.030103635},
{-0.076413974, 0.093453854, 0.05487464, 0.095044434, 0.0040443717, 0.037550453, 0.05979235, -0.08818459, -0.018551314, 0.16122682, 0.025072493, 0.1862759, 0.052146822, 0.08569663, -0.060009576, -0.009667168},
{-0.08448841, -0.03879472, -0.08698762, 0.11654337, 0.17435378, 0.099641114, 0.07598062, -0.12435994, 0.0077511426, 0.11967357, -0.016540144, 0.018133618, -0.09547718, 0.2562786, 0.013445454, 0.035813127},
{-0.011176526, -0.04462247, -0.014636013, 0.15596807, 0.13731858, 0.037737276, 0.10860987, -0.040082503, 0.13898137, 0.28605416, -0.077152625, -0.03534712, -0.012844581, 0.19060065, 0.06729258, 0.075075366},
{0.07971555, -0.08677841, 0.031697728, 0.0033385726, 0.17081875, 0.11091932, 0.036269873, -0.08113465, 0.103883296, 0.11178353, -0.0103743095, 0.02695802, -0.15641709, 0.2052598, 0.023644732, 0.24015918},
{0.04616315, -0.06328021, -0.008985171, 0.0817654, 0.07534721, 0.046596944, 0.034917504, 0.0009604261, 0.04361258, 0.13440004, -0.08135177, 0.023158835, 0.0028071895, 0.071925856, -0.04506682, 0.1881024},
{0.16228257, 0.013096067, -0.021106964, -0.10710525, -0.053823583, 0.14921404, 0.17249766, -0.06083324, 0.0467023, 0.1687484, -0.056977794, 0.07541177, -0.09407226, 0.13194653, -0.090199746, 0.20391135},
{0.13541542, 0.031427298, 0.050829563, -0.0986344, 0.03019585, 0.06745631, 0.07657019, 0.016530829, 0.101673014, 0.12630042, 0.033740256, -0.014390062, 0.08993945, 0.15753612, -0.08593316, 0.06193597},
{-0.044322856, 0.095531814, -0.0155790355, -0.1676799, -0.081902176, 0.065323725, 0.16106768, -0.11873034, 0.04261954, 0.23953088, -0.0030756847, 0.073515885, 0.17206572, 0.11803857, 0.0150388265, 0.19357532},
{0.12096345, 0.13038023, -0.072979435, -0.13891125, -0.07135282, -0.023369145, 0.070564546, -0.06887294, -0.017298205, 0.14117819, 0.041525874, 0.10772087, 0.053404357, 0.07775378, -0.06444742, 0.18578616},
{0.02891544, 0.0007577898, -0.03463841, -0.12440857, -0.14722523, -0.17589317, 0.12879892, 0.049566377, -0.0035323116, 0.19895379, -0.039375782, 0.03592793, 0.10039634, 0.086122476, -0.054054976, 0.15707602},
{0.026754614, 0.07442731, -0.08524882, -0.20352171, -0.045621574, -0.27627596, 0.061533473, 0.116937295, 0.02490022, 0.13875906, 0.03978983, 0.12895225, 0.14925249, 0.015510207, -0.038787745, 0.066661604},
{0.073540725, 0.06879212, -0.12911633, -0.16027997, -0.14461464, -0.22473475, -0.029184703, 0.104221836, -0.082163155, 0.09332801, -0.07525431, 0.04739248, 0.11003782, 0.042401668, -0.01812004, 0.17573728},
{0.15214433, 0.15227176, -0.19167307, -0.061699953, -0.094071925, -0.23485647, -0.04810838, 0.080311455, 0.009341525, -6.894443e-05, 0.08759337, 0.07902604, 0.24405782, 0.006023725, 0.06454139, -0.03833983},
{0.19311966, 0.13666742, -0.11115155, 0.081954576, -0.15098013, -0.4514595, -0.076505035, 0.11564531, -0.1168069, 0.02801591, 0.05590746, 0.12839895, 0.32816458, -0.07832344, 0.19758119, -0.030475322},
{0.09735118, -0.06820482, -0.14361615, -0.00052841747, 0.023464628, -0.3128705, -0.047916956, 0.10842976, -0.27221644, 0.0084349625, -0.012295954, 0.14508143, 0.41521752, 0.07938785, 0.06043076, -0.18736528},
{-0.04843685, -0.1334961, -0.0069796387, -0.18301827, 0.2040832, -0.18071301, 0.086708225, 0.045794804, -0.17278539, 0.17256469, 0.10737354, 0.0953775, 0.29693937, 0.1892164, 0.098251976, -0.20434776},
{-0.040477145, -0.16500796, 0.08828993, -0.2693679, 0.0045736902, -0.08431282, -0.0959199, -0.07498546, -0.22377007, 0.30414876, 0.018756056, 0.18067494, 0.22151266, 0.09515014, -0.0103847375, -0.025922894},
{0.017400086, -0.15960774, 0.14907946, -0.19413221, -0.043718964, -0.115240455, -0.1718841, -0.05460975, 0.07430813, 0.26791516, -0.12100671, 0.07915608, 0.16753243, 0.04331277, -0.0679809, 0.099828765},
{0.0112686455, -0.06711239, 0.048204347, 0.045125037, 0.033035852, -0.018509485, 0.028824888, -0.06434199, 0.009976491, -0.07598434, -0.023481794, -0.06822369, -0.039870806, -0.020367444, 0.048403412, -0.0052418187},
{0.07143068, 0.109785005, 0.11215346, -0.07724674, 0.04952734, 0.1671546, 0.17027968, -0.1776624, 0.023020068, -0.08046935, 0.039816245, 0.09419049, -0.09531012, 0.11806611, 0.12155941, -0.083613575},
{0.029390393, 0.04018109, 0.09619734, 0.18863803, 0.19695313, -0.19046104, 0.09730905, 0.12259191, 0.12207543, -0.15352052, 0.037516356, -0.04546413, 0.08978082, 0.12484233, 0.048819646, -0.040413566},
{0.07807334, 0.18996489, 0.3563336, -0.03540463, 0.140335, 0.15607834, 0.10940295, 0.18747483, 0.43617383, -0.14851317, -0.17253813, 0.07221622, -0.14969687, 0.10269603, -0.028585643, -0.19067036},
{-0.019710941, 0.19665073, 0.23254573, -0.007286707, -0.10077789, 0.23459652, 0.14978929, 0.07656905, 0.095038325, -0.09828705, -0.10710984, -0.018312203, -0.06643988, 0.062911235, 0.21319142, -0.30327973},
{0.0811651, 0.14256139, 0.17148873, 0.04629768, -0.11433235, 0.16069664, 0.18916303, -0.022251563, 0.10175659, -0.06470787, 0.015343807, -0.024819491, 0.08510815, -0.0038561926, 0.16281267, -0.2058105},
{0.078984246, 0.0077723293, 0.16031967, -0.065050445, -0.021990912, 0.21158141, 0.11468817, 0.053394392, 0.13340235, -0.08984572, -0.10932191, 0.02286102, 0.06805032, 0.13284211, -0.03898092, -0.036540497},
{0.02446254, 0.04230914, 0.09784978, 0.10209002, -0.058799203, 0.050167188, 0.19842419, -0.011951341, 6.605597e-05, -0.021988537, -0.11245082, 0.045788452, 0.12990212, 0.0376898, -0.06697759, 0.009486332},
{-0.037114263, 0.084597304, 0.074177496, 0.0137745, -0.0016798098, -0.02880633, 0.15316689, -0.081709184, 0.04442934, 0.11646398, -0.07058316, 0.048634496, 0.10726374, 0.2197518, -0.08778244, -0.08775037},
{0.13917768, 0.088658236, 0.12051151, 0.029663557, 0.066481486, -0.054536365, 0.16952506, 0.0015265933, 0.08837777, 0.08587402, -0.17441711, 0.16078357, 0.014748177, 0.1416073, -0.038393725, -0.090217784},
{0.066869795, 0.2628627, 0.110195436, 0.045446374, 0.07872258, 0.021512372, 0.22220297, -0.054509494, 0.15489873, 0.056040876, -0.08130334, 0.06884148, -0.11803011, 0.14579871, 0.0050781583, -0.16168392},
{0.087025166, 0.09247908, 0.03630724, 0.027478816, 0.21568975, -0.14542136, 0.06643303, 0.048665043, 0.1060109, 0.14989884, -0.04286842, 0.11223781, -0.010596872, 0.14737546, -0.008851125, -0.06090571},
{0.056669515, 0.080210105, -0.03301415, 0.12110801, 0.27698714, 0.00442397, 0.013080056, 0.040936284, 0.105336376, 0.18884167, -0.07090846, 0.08099162, -0.055990696, 0.06210463, -0.057407502, 0.07817508},
{-0.061907627, -0.13140376, -0.062524214, 0.05583146, 0.20766434, 0.031755786, 0.05343674, -0.042137403, 0.10913004, 0.16180982, 0.024433868, 0.06716209, -0.2047878, 0.22346297, -0.011728476, 0.052121952},
{-0.0285777, -0.13984774, 0.02883489, 0.1599678, 0.1243353, 0.074585676, 0.11119772, 0.005837867, 0.123823695, 0.18575999, 0.03399021, 0.22092037, -0.15058808, 0.20783764, -0.0071922215, 0.13791655},
{-0.069360435, -0.031257562, 0.011089914, 0.13636316, 0.2552427, 0.001942822, 0.0104790665, -0.051316712, 0.09935273, 0.18179227, -0.09159989, 0.21404217, -0.19285913, 0.09138952, -0.15601511, 0.021582302},
{-0.029721858, 0.017338082, 0.01036321, 0.094308265, 0.23493639, 0.07234492, 0.02203505, -0.040748265, 0.14227563, 0.13701531, 0.022226365, 0.11980392, -0.20663616, 0.15168269, -0.04740978, 0.06970291},
{-0.081659496, 0.13841973, -0.05308999, 0.14582007, 0.2181889, -0.06424898, 0.018405747, 0.07797536, 0.1698724, 0.16964486, 0.025883995, 0.13413115, -0.06834747, 0.042005718, 0.03831286, 0.13339768},
{0.062085822, 0.106063366, -0.0018105867, 0.016242, 0.18049613, -0.06108553, 0.03321787, -0.0379759, 0.17351024, 0.02581398, -0.0445192, 0.1973643, -0.08709871, 0.1479414, -0.036988292, 0.049295485},
{0.058079187, 0.09877214, -0.21385323, -0.08979847, 0.14172174, -0.17544892, -0.011364368, 0.07306718, 0.005402188, 0.155589, 0.039255172, 0.08198544, 0.04833242, 0.0505262, 0.054862365, 0.1420056},
{0.07697126, 0.054488674, -0.15182918, -0.10186444, 0.09999094, -0.2190712, 0.08013543, 0.110506035, 0.060199633, -0.022588225, 0.067964725, 0.052027993, -0.07423852, 0.10489321, -0.010170953, 0.15174118},
{0.033049364, -0.0473055, -0.11088794, 0.023640975, 0.0055599604, -0.23106909, 0.011454471, 0.11816529, 0.068695635, -0.042737804, -0.0016104645, 0.09956887, 0.027976025, 0.061384533, 0.018309463, 0.071222454},
{-0.03193353, 0.054899544, -0.13511664, -0.09638003, -0.041463826, -0.27627605, 0.11457704, 0.012950742, -0.027770484, -0.059612114, 0.0031238492, -0.06652485, 0.30128282, 0.119686455, 0.107854635, 0.06652792},
{0.12589577, -0.06407066, -0.23688288, -0.14357159, -0.12928036, -0.48410845, 0.09855637, 0.18859346, -0.17880058, 0.05603234, -0.031139031, -0.016194243, 0.36277616, -0.10113661, 0.17970853, 0.034716833},
{0.08802213, -0.04356021, -0.106265016, -0.31602368, 0.030494172, -0.3205521, -0.06709871, 0.07809608, -0.2846497, 0.02531622, 0.011962969, 0.09334921, 0.463062, 0.02241563, 0.18728538, -0.1637404},
{-0.016993174, -0.33393243, -0.06436773, -0.26698315, 0.14561448, -0.28016973, 0.016132409, 0.13118848, -0.27635804, 0.37804037, 0.07197988, 0.36029887, 0.29959118, 0.16460253, 0.08973405, -0.267359},
{0.2885276, -0.15870404, 0.06746543, -0.13822336, -0.022513676, -0.06838435, -0.07469539, 0.10443389, -0.17909572, 0.1297883, 0.038581572, 0.120851226, 0.26831684, 0.13347955, 0.077764235, -0.2737413},
{0.080720186, 0.01100654, -0.01906684, -0.14659883, 0.004630136, -0.07631089, -0.16107644, 0.0062326724, -0.11027554, 0.1342651, 0.074848406, 0.050871693, 0.16694635, -0.0112093035, -0.13229229, 0.02128636},
{0.009338456, 0.07941402, 0.0865247, -0.0028704593, -0.059183937, 0.020420978, 0.021210792, 0.079288304, 0.0814712, -0.095528744, 0.010806717, -0.087017685, 0.094915554, -0.1058441, -0.0202711, 0.013418563},
{0.05270558, 0.25461346, 0.20670776, -0.20362173, 0.11145044, 0.09175981, 0.20545174, -0.15558816, 0.1795146, -0.22870855, 0.17859577, 0.11145938, 0.04744603, 0.13780566, 0.2562803, -0.21465881},
{0.033134576, 0.25726807, 0.27371845, 0.25965062, 0.013541658, -0.18702549, 0.15971448, -0.03600544, 0.1830126, -0.0563446, 0.021110253, -0.07295307, 0.21022345, 0.11923587, 0.07651102, -0.03872938},
{0.18438308, 0.12716325, 0.31378162, 0.038473938, 0.106411, 0.1489832, 0.15737201, 0.14496134, 0.51011467, -0.22988845, 0.0027036914, -0.02981881, 0.06039773, 0.06898061, -0.04473593, -0.13317831},
{-0.03405865, 0.15854625, 0.29812664, -0.09540835, -0.14602615, 0.3157189, 0.12826778, 0.018678403, 0.24391617, -0.027481418, -0.0182617, -0.035742134, -0.07205142, 0.061319977, 0.1260899, -0.11802944},
{-0.07097818, 0.06761876, 0.095516816, -0.06502091, -0.1150292, 0.17043495, 0.26533717, -0.07499294, 0.019843454, -0.0063057244, 0.10586567, -0.08853397, 0.08821507, 0.091102734, 0.08522225, -0.10543109},
{0.0026954648, 0.11603091, 0.060761757, -0.12219617, 0.067781545, 0.077440396, 0.13997583, -0.010783829, 0.11945583, -0.069817424, 0.0036147982, -0.04508235, 0.17801678, 0.23223707, 0.017219355, -0.07159098},
{0.021644428, 0.18368274, 0.10371173, -0.09794368, 0.084183924, -0.07727178, 0.2903429, -0.0498468, 0.055709597, 0.06873914, -0.062428895, 0.05079204, 0.20854606, 0.01730038, -0.0599564, -0.03671633},
{0.053659275, 0.096691996, 0.056331526, -0.07284171, 0.13614629, -0.04716537, 0.19563077, -0.0033504665, 0.049325522, 0.12485386, -0.012576076, -0.0005275667, 0.18057503, 0.21186393, -0.020163616, -0.15031646},
{0.0006179176, 0.23996572, 0.025591334, 0.123895496, 0.09272838, -0.15445285, 0.17337535, 0.15740602, 0.07656783, 0.12247332, -0.099398054, 0.06690201, 0.107091404, 0.18010248, -0.037904233, 0.0008993418},
{0.02613489, 0.17779635, 0.057662077, 0.07196723, 0.18794532, -0.05398631, 0.1333551, 0.07506271, -0.009223933, 0.08050385, -0.16758448, 0.17420156, 0.081876464, 0.12671334, -0.0208981, 0.056417886},
{-0.03412883, 0.17147373, 0.04777631, 0.05133573, 0.15530215, -0.0449264, 0.04065011, 0.024720194, -0.009494167, 0.12573327, -0.012574879, 0.16028291, 0.024185231, 0.17549895, -0.10023072, 0.07212876},
{0.033348553, 0.15291451, 0.03566807, 0.13454057, 0.20016326, -0.13507909, 0.05871359, 0.048376016, 0.09167121, 0.05591706, -0.02508445, 0.17939594, -0.14142196, 0.16833802, -0.12673582, 0.0031977769},
{-0.086324334, 0.045369904, -0.04767439, 0.13960859, 0.14867243, -0.0744545, -0.04185392, 0.0844171, 0.19612505, 0.084116004, -0.062554695, 0.22547232, -0.14919974, 0.12198817, -0.05001119, -0.008946675},
{0.010190709, -0.1460259, -0.017211324, 0.09145352, 0.15909044, -0.003776146, -0.060329452, 0.0246931, 0.08410336, 0.17820188, 0.09379712, 0.3390469, -0.33261386, 0.11543219, 0.0603835, 0.07274853},
{-0.08610453, -0.057676822, -0.0016332617, 0.23618567, 0.25578004, -0.0015411557, 0.015871432, -0.04903116, 0.14320758, 0.14538762, 0.055127345, 0.25586775, -0.22279254, 0.016208438, -0.032270234, 0.11992107},
{-0.14950253, 0.12468217, -0.16673492, 0.25449717, 0.3793007, 0.13830052, -0.020942459, 0.092914864, 0.12655914, 0.045913305, 0.050963946, 0.160458, -0.18734133, 0.12463339, -0.05183809, 0.050351303},
{0.032638147, 0.1727382, -0.03669095, 0.18445371, 0.35329938, 0.10852628, -0.032755565, 0.03231746, 0.030454196, -0.061586447, 0.059198294, 0.16796166, 0.030036924, 0.08966133, 0.0711229, 0.096398436},
{-0.07179856, 0.24235521, -0.15652639, 0.12226998, 0.24985974, -0.0350173, 0.04069571, 0.11143303, 0.054462373, -0.10280338, 0.05496565, 0.0158103, -0.017982561, 0.11112522, 0.0008639506, 0.08425392},
{0.012577832, 0.26174733, -0.113454655, -0.0008632508, 0.13733439, -0.09439852, 0.075297736, 0.080427356, 0.10942953, 0.012270848, 0.05827328, -0.028006004, -0.105012245, 0.07813355, 0.07186461, 0.1375953},
{0.081899494, 0.14214814, -0.06707424, -0.06968911, 0.23439847, -0.21082065, -0.008911163, 0.14678586, 0.062022574, -0.13199095, -0.033024896, 0.0066710645, 0.028057855, 0.114019364, 0.102353625, -0.023363482},
{0.036731243, 0.13365091, -0.062123686, -0.06308816, 0.032914728, -0.36218783, 0.039119348, 0.078091025, 0.03579505, 0.054020066, -0.012490915, -0.14411074, 0.064765565, 0.08773876, 0.066508316, 0.11194349},
{-0.019902932, 0.022840636, -0.06149644, -0.120501846, 0.008173864, -0.299253, -0.065239646, 0.13716717, 0.0016011177, -0.059737436, 0.016282361, -0.18014085, 0.14726184, 0.0841028, 0.14718707, 0.052622933},
{0.006046225, 0.057733715, -0.4124475, -0.08983366, 0.15080924, -0.52229965, 0.1433207, 0.07476211, -0.15336455, -0.0786426, 0.04439897, -0.27641124, 0.32424077, 0.03129267, 0.0953989, 0.020890977},
{-0.08676858, -0.18785028, -0.32583407, -0.16105278, 0.037872203, -0.5607619, 0.10880678, 0.051538266, -0.1933593, 0.118708596, 0.07527135, -0.20637925, 0.51094294, -0.0030001076, 0.13056092, -0.1052133},
{0.0051598647, -0.35521287, -0.13773718, -0.24701254, 0.15478967, -0.38087967, 0.04823557, 0.0031428393, -0.28652686, 0.14031412, 0.21220112, 0.16964279, 0.43144473, 0.20102808, 0.309934, -0.34353948},
{0.18671623, -0.16903017, -0.06861737, -0.012828533, -0.06722371, -0.13031174, 0.0107565485, 0.025898943, -0.06053198, 0.12569036, 0.049689252, 0.058930784, 0.3288075, -0.008383882, 0.21370052, -0.3103733},
{0.10928751, -0.06323493, 0.057583403, -0.21483609, 0.0525232, -0.04288162, -0.16496335, -0.07986122, -0.22906588, 0.07843847, 0.11701122, -0.05372148, 0.1349588, 0.052480165, -0.08068594, 0.055238206},
{-0.06637727, 0.13101709, -0.026362073, -0.09223399, 0.023408584, -0.029156553, 0.14805855, -0.1421462, -0.098863654, -0.10405063, -0.023091534, -0.045469314, 0.21526888, 0.07884908, 0.05625926, 0.16058566},
{-0.025890257, 0.3340293, 0.287976, -0.13074516, 0.05755746, -0.009257994, 0.007337027, 0.080989346, 0.25730097, -0.117565386, -0.14722857, 0.078032985, 0.026652945, 0.04829068, -0.042084973, 0.021959616},
{0.13388948, 0.14648306, 0.12953018, 0.17125317, -0.009118531, -0.025656844, 0.2371004, 0.0061888276, 0.16896999, -0.19928502, -0.027472641, -0.10476876, 0.37390244, -0.07539725, -0.0020798126, -0.09677759},
{0.07099765, 0.03700927, 0.17387968, -0.11012559, 0.0032809996, 0.085745014, 0.23737425, 0.19387798, 0.43043232, -0.26094964, 0.0028798406, -0.11048962, 0.10376077, -0.15940794, 0.03556171, 0.029572707},
{0.03091288, 0.051709957, 0.5148941, -0.03318745, -0.026054788, 0.18306044, 0.21380411, 0.13887586, 0.478563, -0.052439332, -0.037678476, -0.09270036, 0.0028158152, 0.039416023, 0.0128873475, -0.17483684},
{0.01068672, -0.041153364, 0.14146985, -0.0500954, -0.04434916, 0.06569062, 0.21967843, -0.032028507, 0.21486121, -0.039599955, 0.0112218065, -0.19423272, 0.15502007, 0.09026213, -0.018872561, -0.07301442},
{-0.078652576, -0.027079424, 0.027171165, -0.07950914, 0.07604276, 0.120451465, 0.22454028, 0.06883131, 0.12836531, 0.0591911, -0.016720276, -0.035377983, 0.1497274, 0.08399659, -0.05264376, 0.09177729},
{0.007787814, 0.14094338, 0.019457117, -0.089547366, 0.14354345, -0.044031534, 0.20082599, 0.22051491, 0.06110833, 0.04588301, -0.18234727, -0.07149301, 0.13083704, 0.07801108, -0.04441211, -0.12593055},
{-0.03664214, 0.2267072, 0.02969602, -0.021403367, 0.051993567, -0.15401548, 0.19617465, 0.13663936, 0.056776717, 0.09017706, 0.036864012, 0.031560432, 0.097608045, 0.02462172, 0.019304859, -0.02145293},
{-0.08681589, 0.14844196, 0.016585775, -0.022374712, 0.16623695, -0.21598801, 0.15772559, 0.15234448, 0.16240609, 0.0646791, -0.015355496, -0.04471434, 0.22467907, 0.11687404, 0.04186686, -0.014950962},
{-0.17777859, 0.19646756, 0.03453686, 0.044944763, 0.20365989, -0.039292995, 0.054440774, 0.14502856, 0.1752693, 0.11652061, 0.056396365, 0.07207089, 0.052199014, 0.032126106, -0.06714784, -0.006553318},
{-0.02285337, 0.17025006, -0.020965997, -0.051889714, 0.07430411, -0.25505677, 0.07686792, 0.11053872, 0.038523473, -0.0055003786, -0.0025268071, 0.14630277, 0.06719555, 0.1883398, -0.06286391, -0.010573857},
{-0.13874502, 0.18293706, -0.019944588, -0.093667954, 0.22869655, -0.14781, 0.076029785, 0.075826846, 0.10872377, 0.10644221, -0.08771279, 0.15206014, 0.061982654, 0.013019063, -0.036438867, 0.027734645},
{-0.096422374, 0.09644595, -0.072700925, 0.028182399, 0.19291407, 0.08165702, 0.053981688, 0.107275255, 0.12875845, 0.034864787, -0.0019062771, 0.12715924, -0.054167893, 0.016302979, -0.08386393, 0.087943986},
{-0.07543551, -0.032392602, -0.041930158, 0.06825681, 0.24868843, 0.14485286, -0.14733484, 0.05100814, 0.15286861, -0.012670822, -0.023052517, 0.22700863, -0.17984706, 0.18027577, 0.039331093, 0.09982197},
{-0.021843579, 0.043685555, 0.042761248, 0.13985549, 0.29325417, 0.113626726, -0.07014488, 0.04711432, 0.22726277, -0.13065237, -0.027004456, 0.08800712, -0.14181225, 0.13866538, 0.012652031, 0.08233952},
{-0.06884675, 0.25494662, -0.09578769, 0.12989166, 0.2653524, 0.18421644, 0.029096343, 0.007859339, 0.15264566, -0.05587356, 0.06076735, 0.005121076, -0.1350931, 0.1095326, -0.022754941, 0.19911973},
{0.018957144, 0.25348094, -0.0072742803, 0.086349405, 0.22855353, 0.20283851, -0.005758658, 0.091230355, 0.112267286, -0.06911246, 0.07632964, -0.069930635, 0.032142565, 0.10845692, 0.061931223, 0.17738259},
{0.07668114, 0.33252147, -0.14915627, 0.011352258, 0.3158441, 0.06273205, 0.18518269, 0.12456781, 0.13483112, -0.09932958, 0.048473414, -0.18820898, -0.042581454, 0.1354383, 0.017000638, 0.1392567},
{-0.034496184, 0.15445416, -0.06201743, -0.14069697, 0.14983374, 0.00484708, 0.15763061, 0.092237785, 0.12315837, -0.10396372, 0.038130537, -0.13302465, 0.042776763, 0.14684957, 0.079341896, 0.06995438},
{-0.0038164272, 0.13418195, -0.06660775, -0.057606634, 0.21123797, -0.0933399, 0.10987313, 0.096580334, 0.10819987, -0.053510465, 0.08738973, -0.203743, 0.11535748, 0.24006636, 0.05538103, -0.0017510086},
{-0.041640498, 0.026848586, -0.16041838, -0.15911888, 0.040902976, -0.33769163, -0.0027081168, -0.03578879, 0.09559722, 0.0005611231, 0.10823717, -0.22429712, 0.051778752, 0.11179741, 0.14688453, -0.046679124},
{-0.056939032, 0.15186912, -0.12886594, -0.21803164, 0.2152248, -0.4490357, 0.08499655, 0.13229929, 0.02707858, -0.13463357, 0.032865196, -0.3124818, 0.10445136, 0.15272738, 0.067617364, -0.054599263},
{-0.15311177, -0.02771854, -0.37723657, -0.14314559, 0.103775576, -0.53026, -0.05535424, 0.02174886, -0.078417234, -0.049272414, 0.1477163, -0.50497794, 0.3396529, 0.18881418, 0.04717608, -0.0019637463},
{-0.12629148, -0.24329405, -0.62609094, -0.20473507, 0.3082739, -0.64631534, 0.09249412, 0.17276414, -0.2896177, 0.09091437, 0.3298061, -0.28746814, 0.41752735, 0.065875255, 0.19865388, -0.122864224},
{0.17682442, -0.39807835, -0.36584288, -0.23528711, 0.13309945, -0.5023623, 0.060104623, 0.14155047, -0.33002013, 0.1750788, 0.25734583, -0.037312634, 0.51243, 0.15194492, 0.21527503, -0.49255913},
{0.06841588, -0.06413594, -0.12705113, -0.23763055, 0.20914294, -0.14119974, 0.075598754, 0.26246762, -0.054797966, 0.11779029, 0.14051695, -0.008965792, 0.08760705, -0.023914883, 0.1268547, -0.2449239},
{-0.021792011, -0.12593867, -0.027270209, -0.16210224, 0.17867099, 0.008369081, 0.058333423, 0.08733391, -0.059103843, 0.16600591, 0.04719425, 0.028228967, -0.09554129, 0.026446985, 0.07133177, 0.0099143665},
{0.12876762, 0.1432393, 0.052016556, -0.15987808, 0.19227132, -0.0068906224, 0.045949936, 0.15921457, 0.06427165, -0.07970541, -0.079677224, 0.01932566, 0.21641512, 0.015980598, 0.0016150234, -0.021466807},
{0.114518054, 0.15365335, 0.29565358, 0.0020168617, 0.20802279, -0.24852812, 0.19921605, 0.16077314, 0.16420117, -0.22089382, -0.041926317, 0.026864043, 0.21246956, -0.019400198, -0.044668153, -0.13302623},
{0.113666356, 0.07898623, 0.23424146, 0.024053827, 0.073138684, 0.09738911, 0.17599031, 0.033622365, 0.26065466, -0.26364514, -0.08947142, -0.0072807935, 0.30972025, -0.0841642, 0.08439945, 0.032439284},
{-0.08968749, 0.02292289, 0.17925268, -0.07636566, 0.11666953, 0.15272255, 0.14717552, 0.08342925, 0.33483675, -0.07350492, 0.0075437296, -0.12797953, -0.026904983, 0.024685208, -0.06735852, -0.0024044095},
{-0.028177872, -0.02334367, 0.31280562, -0.24934791, 0.105734214, 0.27219033, 0.1601081, 0.0612794, 0.33975685, -0.025473805, -0.02783361, -0.012417704, 0.07945022, 0.06304639, -0.07552996, -0.2058926},
{-0.18994124, 0.118766084, 0.12602746, -0.0059468, 0.086481355, 0.055472862, 0.1824533, 0.018069202, 0.23669378, 0.01286309, 0.046974674, -0.119368844, 0.079814784, 0.25774595, -0.033518624, -0.07433062},
{0.009292572, 0.008811995, -0.035579097, -0.06302854, 0.12117722, -0.103581265, 0.19075616, 0.16459665, 0.104104, 0.030666089, -0.089596294, -0.075755276, 0.007208234, 0.13035001, -0.085599326, -0.039175246},
{-0.019451708, 0.09498318, 0.0680579, -0.071658365, 0.14308521, -0.13376765, 0.07157293, 0.11894447, 0.09262899, 0.0140818525, -0.07238375, -0.03339287, -0.070805095, -0.007743574, -0.0075364774, -0.0082011055},
{-0.041430626, 0.12725502, 0.047096927, -0.009820352, 0.08252784, -0.27638823, 0.042455666, 0.18835804, -0.05097606, 0.041637726, 0.048295327, 0.041001488, 0.009204224, 0.005581804, -0.0056985226, 0.014318522},
{-0.17608237, 0.21194638, 0.054746415, -0.05723472, 0.16791348, -0.16010134, 0.12345573, 0.10447653, -0.0014736735, 0.11274286, -0.0014392294, -0.06330771, 0.096299574, 0.10586522, 0.05681577, 0.05585894},
{-0.112472504, 0.16549636, -0.048574254, 0.08434832, 0.08915746, -0.29836777, -0.071507685, 0.04208102, 0.074768476, 0.17574492, 0.01090109, 0.0076463926, 0.180883, 0.16751395, -0.08280453, 0.02408165},
{-0.026768735, 0.17442967, -0.15570581, -0.081841625, 0.18645847, -0.23905757, -0.17718183, 0.13981439, -0.08535549, 0.06952583, -0.103912316, -0.006097919, 0.22420122, 0.10252743, -0.10670027, -0.06675844},
{-0.056622427, 0.17462608, -0.19581392, 0.0318554, 0.17871428, -0.11970776, -0.09168721, 0.027744375, 0.057188723, -0.018005524, -0.11806512, 0.15917203, 0.20243092, 0.15773775, -0.03533966, 0.030184094},
{0.039133046, -0.10657597, -0.13851392, 0.012940671, 0.11527293, -0.054535575, -0.10132152, -0.04881008, 0.045324493, -0.05699192, -0.09133274, 0.12657249, -0.036228754, 0.17001598, -0.017895216, 0.039580718},
{0.06353227, -0.2137347, 0.09199289, 0.007235012, 0.1497874, 0.18993868, -0.16426805, 0.019715576, 0.25339687, -0.20779276, -0.12502134, 0.07915248, -0.14244694, 0.07469691, -0.07407284, 0.06363482},
{0.16232742, 0.14762674, 0.027345471, 0.047357574, 0.15713848, 0.27117428, -0.2298048, -0.0642583, 0.18398139, -0.18182395, 0.0022805121, 0.002288631, -0.22118619, 0.17212902, -0.11586341, 0.051634263},
{0.1121342, 0.28452358, 0.09219414, 0.075995386, 0.22129092, 0.37250236, 0.014943799, 0.0072309836, 0.19043148, -0.11931366, 0.027703622, -0.2935243, 0.028718125, 0.17635696, -0.039090425, 0.022374036},
{0.027406521, 0.24912576, -0.11796399, 0.022254432, 0.23391846, 0.20631525, 0.08757118, 0.06231029, 0.15203048, -0.18269031, 0.07093056, -0.27124348, 0.022026971, 0.12830366, -0.09089143, 0.05051634},
{0.0941543, 0.18356162, -0.17323719, -0.011583606, 0.16933571, 0.15033206, 0.05878049, 0.014104729, 0.21930227, -0.09415598, -0.027218614, -0.27550268, 0.055249345, 0.19494478, -0.0016535212, -0.033080205},
{0.053126946, 0.1382993, -0.15327086, -0.037163477, 0.04789958, -0.02954047, 0.12799616, 0.00015585212, 0.20000438, -0.004407334, 0.032653727, -0.32631254, -0.024343526, 0.041691706, 0.0030882035, 0.065175734},
{-0.06612286, -0.041434318, 0.008709467, -0.045243934, 0.12131091, -0.084484845, 0.20017643, 0.025503406, 0.13412705, -0.11925618, 0.039329156, -0.2430099, -0.0065820906, 0.112485364, 0.08067695, -0.069456466},
{-0.020978525, -0.042714756, -0.075497076, -0.14992364, 0.1487449, -0.29888266, 0.082003914, 0.034594204, 0.032209273, -0.10842107, 0.031027446, -0.2915604, 0.15085275, 0.05321743, 0.09813226, -0.111473516},
{-0.16067137, 0.07653955, -0.16791025, -0.27597025, 0.11221501, -0.5060668, 0.031180365, -0.0013882479, 0.06254296, -0.043975286, 0.17806748, -0.29653215, 0.07569993, 0.136, 0.08676548, -0.1364075},
{-0.19432344, -0.010350349, -0.25869116, -0.24828663, 0.1538289, -0.63416123, 0.030315947, 0.07961961, -0.04085822, -0.053784784, 0.16289791, -0.4689373, 0.3141872, -0.002622292, 0.07365244, 0.053849023},
{-0.04332946, -0.26248398, -0.35380766, -0.3109918, 0.46140057, -0.6287229, -0.21553668, -0.044251516, -0.39007622, -0.021352954, 0.46978584, -0.3144131, 0.5032239, -0.086331256, 0.0045041097, 0.080721706},
{0.2143896, -0.16809876, -0.31211045, -0.46572986, 0.49442217, -0.42427275, -0.009675163, 0.09027151, -0.38774282, 0.031900186, 0.499043, -0.14038065, 0.5161185, 0.26311016, 0.07854265, -0.47769964},
{0.023822188, -0.3214361, -0.078339025, -0.4253765, 0.3800763, -0.17936468, 0.052401446, 0.124775715, -0.20553644, -0.015740197, 0.19543518, -0.03973864, 0.22588673, 0.068875946, 0.13352737, -0.27025542},
{0.12093554, 0.018689176, 0.12631536, 0.02285277, 0.062113423, -0.025474953, -0.11325825, 0.018206412, -0.093933426, -0.082088776, 0.20848337, 0.018214451, 0.19350033, 0.18266296, -0.023879003, -0.1350601},
{0.12134878, -0.015553621, -0.0012863317, -0.07257579, 0.11164095, -0.056453742, 0.01306304, 0.1711043, 0.16353248, -0.05271653, -0.19881313, 0.033883594, 0.21318449, -0.0015487426, -0.0043896227, -0.05594928},
{0.11514597, 0.37138626, 0.29137322, 0.16292669, 0.14485402, -0.1902049, 0.00062749884, 0.19640306, 0.12065812, -0.13508432, 0.0204, -0.04677579, 0.19387004, -0.22438686, -0.092801295, 0.04094571},
{0.034155622, 0.3387494, 0.14814338, -0.09828598, 0.09640448, 0.08426269, 0.2113905, 0.077586465, 0.28115302, -0.24373622, -0.20951688, 0.02035116, 0.2057511, -0.007919984, -0.06618409, 0.05443782},
{-0.037937675, -0.0031562536, 0.14909196, -0.14038992, 0.19983976, 0.07928958, 0.24858432, -0.041534927, 0.50148994, -0.18121724, -0.036878128, 0.13485247, -0.093144104, 0.20405054, -0.0138353305, -0.14965181},
{0.022058234, 0.028111737, -0.022558479, -0.11075801, 0.1880581, 0.037780102, 0.09491683, 0.013198077, 0.1888569, -0.15234935, 0.05044103, -0.048405025, 0.1647285, 0.014442398, -0.010470368, -0.21401839},
{-0.10753526, 0.1470365, 0.04110933, -0.09297959, 0.14149348, -0.09548487, -0.09762143, 0.012384342, 0.07104744, 0.08136757, -0.03698889, -0.087396346, -0.005546508, 0.14030962, -0.11099363, 0.039597522},
{-0.15064366, 0.10750021, -0.05219237, -0.031473227, 0.23598762, -0.09776278, -0.0852104, 0.017407449, 0.12721463, 0.04188507, -0.12620157, -0.05910427, -0.1329929, 0.10986828, -0.08677365, 0.019095851},
{-0.1261434, 0.034097355, 0.034667138, 0.05623695, 0.12508029, -0.31954944, 0.04916509, 0.07882145, -0.0686781, 0.07904317, -0.04939929, 0.026672585, 0.12008408, 0.09662233, 0.057650115, 0.00020845872},
{-0.083601356, 0.15594552, -0.1233357, 0.053908873, 0.120889485, -0.3952365, 0.05716458, 0.110566296, -0.0749594, 0.09448138, 0.01493857, 0.045933306, 0.03646536, 0.08110784, 0.029852964, -0.041242443},
{-0.07919534, 0.12559436, -0.18865317, 0.06418347, 0.12984666, -0.26162106, -0.061844546, 0.16042438, -0.0798472, 0.061464887, -0.008552012, 0.0012402846, 0.15485828, 0.07387996, -0.060681917, 0.03996029},
{0.02855338, -0.08216149, -0.28374547, -0.011206808, 0.10495767, -0.30511975, -0.1372792, 0.14468084, -0.041654672, 0.11372618, -0.14045292, -0.03137969, 0.14693084, 0.082000405, 0.07327718, 0.050517417},
{0.01138045, 0.022708511, -0.3255141, -0.051019136, 0.036552563, -0.13846758, -0.2102919, 0.059753958, -0.054776043, 0.014122417, -0.15964437, 0.06164956, 0.27599233, 0.018104872, -0.06432059, -0.056637347},
{0.1516845, -0.1764874, -0.30136323, 0.0049773897, 0.025868937, -0.048214402, -0.16074543, -0.00439782, -0.030958088, -0.026071591, -0.07968672, 0.06793839, 0.3166209, -0.050985467, -0.085082546, -0.044985007},
{0.23133884, -0.48381156, -0.12493794, -0.14183223, 0.19057898, 0.044272393, -0.17033204, -0.048682906, -0.031071125, -0.2044326, -0.028186262, 0.098029695, 0.0370664, -0.058994643, -0.22645463, 0.013562216},
{0.13481563, -0.434778, 0.052047536, -0.062370658, 0.2177798, 0.17753895, -0.14362632, -0.02771651, -0.04599987, -0.18535642, -0.03331994, 0.037136525, -0.11203065, 0.053097736, -0.3287612, 0.073024556},
{0.3173072, -0.0057307277, 0.08697273, 0.004649899, 0.09803778, 0.2116093, -0.108510666, 0.061073307, 0.06272127, -0.2505874, 0.084078096, -0.3078119, -0.1459634, -0.077465154, -0.23537599, -0.080910474},
{0.27041245, 0.2558672, 0.021542497, 0.13534364, 0.16135058, 0.20568559, 0.041095242, -0.021823699, 0.19309616, -0.2588413, 0.120017864, -0.27354276, 0.0352739, -0.0011998997, -0.2394765, -0.032083},
{0.17410086, 0.27828246, 0.015930668, 0.038652983, 0.109912, 0.19035946, 0.15268335, -0.0028383224, 0.2619576, -0.15093811, 0.11508212, -0.26282853, -0.040432796, 0.037874162, -0.16600263, 0.031615347},
{-0.004170892, 0.024250917, -0.0802347, 0.065734945, 0.08937253, 0.06011144, 0.12249924, -0.037157815, 0.3012203, -0.10432971, 0.07464901, -0.25010693, -0.065279104, -0.06755109, -0.12554468, 0.011406083},
{-0.025369963, -0.012617529, -0.053347804, -0.039117936, 0.0963743, -0.010374496, 0.16347362, -0.04339075, 0.3103103, -0.10264491, 0.052022085, -0.25996557, -0.06360322, -0.07251291, -0.16576907, 0.0016346811},
{-0.02293887, 0.07168499, 0.029418064, -0.12938084, 0.11002215, -0.18844421, 0.1826516, 0.062069904, 0.23407783, -0.065471314, 0.006026266, -0.15187706, -0.053145017, -0.019065883, -0.0714845, 0.05766555},
{-0.15881903, -0.054361146, 0.029805638, -0.063258946, 0.18094464, -0.20235015, 0.1667356, 0.016117826, 0.19855423, -0.12157029, -0.02762714, -0.23733905, 0.08180784, -0.10317973, -0.004901472, -0.039191708},
{-0.24268422, 0.057217732, -0.016953805, -0.088600464, 0.18229412, -0.32500598, 0.00073991925, 0.08852422, 0.23167449, -0.14106856, 0.15514405, -0.27968866, 0.020226274, 0.01770138, -0.052026983, -0.06436215},
{-0.2889232, -0.07385296, -0.1268477, -0.30676892, 0.3213029, -0.47540832, -0.17186897, -0.055813048, -0.1324648, 0.04762166, 0.26841596, -0.38088515, 0.096607484, -0.2521086, -0.054587122, 0.11886192},
{-0.057456467, -0.08899382, -0.2714618, -0.4656076, 0.50434476, -0.6410669, -0.28152215, -0.057106666, -0.38566735, -0.1139702, 0.54653406, -0.3911657, 0.45229977, -0.06492508, 0.06490561, 0.03421492},
{0.37450343, -0.0902607, -0.32018578, -0.45036516, 0.545483, -0.06845585, -0.32013714, -0.027745333, -0.5436996, -0.28064844, 0.5860715, -0.02905815, 0.46220252, 0.24278033, 0.21868776, -0.55403733},
{0.22220059, 0.013276426, -0.06195636, -0.4199399, 0.46477172, -0.07671958, -0.14987072, -0.11524631, -0.31657776, -0.11548264, 0.40298256, 0.041216686, 0.28056103, 0.43066972, 0.17964132, -0.46840063},
{0.09290829, 0.022844072, 0.056204043, -0.095927924, 0.15631278, 0.074514106, -0.08355878, 0.054896392, -0.04417721, -0.02719595, 0.011065134, 0.061486267, 0.03162441, -0.019814387, -0.15246373, -0.18799047},
{0.14609322, 0.1766338, 0.12996836, -0.015646104, 0.23170494, -0.09525582, 0.13190007, 0.14301796, 0.18892051, -0.1331287, -0.13674137, 0.07107474, 0.24923746, -0.13372765, 0.035397377, -0.034614135},
{0.044419236, 0.17003785, 0.120606445, -0.018812468, 0.08557625, -0.20112124, 0.27356797, 0.14456081, 0.11455537, -0.24240476, 0.007255519, 0.0179572, 0.24478035, -0.15058732, -0.09625025, 0.091760755},
{0.12134512, 0.15202244, 0.10626614, -0.17544572, 0.14526865, -0.013122257, 0.09091571, 0.21026736, 0.19778931, -0.34311786, -0.18680559, 0.11530289, 0.23359409, -0.0943131, -0.08955627, -0.017878834},
{0.06723259, -0.10376867, -0.05091244, -0.114397734, 0.091293946, 0.13936381, 0.3651695, 0.040396802, 0.32848924, -0.18398717, -0.14429244, 0.02974871, -0.02822737, -0.016212841, -0.10184714, -0.084860876},
{-0.05896479, -0.016803028, -0.05995478, -0.20942427, 0.28673035, 0.043260317, 0.042520512, 0.14781636, -0.0006660768, -0.0749411, -0.10005453, 0.05633646, 0.044300023, 0.14976878, -0.12299621, -0.21414222},
{-0.12921174, -0.018601004, -0.06585858, -0.074298136, 0.08720269, -0.17335789, -0.036596704, 0.16932015, -0.056002785, 0.1308876, -0.15349972, -0.054732535, 0.019757584, 0.09158841, 0.046958406, 0.00096523605},
{-0.1493899, -0.0030684152, -0.114696935, 0.073000066, 0.122623205, -0.37673625, -0.006692321, 0.0020598487, -0.005906069, 0.04307317, -0.066666216, -0.054582402, 0.07963637, 0.02960411, 0.025351673, -0.025553761},
{-0.085957505, -0.10075719, -0.17251815, 0.07590737, 0.12048296, -0.44597116, -0.08352418, 0.13808115, -0.10362857, 0.011133772, -0.05381467, 0.01857629, 0.12318326, -0.17768736, -0.050698675, 0.008111873},
{-0.048192706, -0.10243701, -0.16469122, 0.14626063, 0.058628377, -0.2101646, -0.057599153, 0.20563649, -0.0036990044, 0.13226055, -0.09180766, 0.0816611, 0.06745167, -0.063094564, 0.059545036, -0.06202884},
{-0.06784343, -0.1370687, -0.2669952, 0.16223694, -0.006907076, -0.22621466, 0.01481433, 0.19940466, -0.085125625, 0.066139825, -0.08735417, 0.036167983, 0.24301878, -0.17631483, 0.10891093, -0.025748784},
{0.16667795, -0.10326939, -0.24889302, 0.1820534, -0.0006409061, -0.04951839, 0.016098397, 0.13173677, -0.07358685, 0.024767702, -0.062646754, 0.13054505, 0.09582329, -0.17964692, -0.07192235, -0.022430435},
{0.1308728, -0.19934453, -0.3161361, 0.13527025, 0.15572721, 0.07288398, 0.037706617, 0.020786988, -0.05988969, -0.03003541, 0.028148767, 0.11647338, 0.18081924, -0.044452854, -0.070905894, -0.040369585},
{0.2478938, -0.4664787, -0.31059235, 0.14529103, 4.6928413e-05, -0.028972039, 0.047389492, 0.00034889238, -0.063016534, -0.03104007, 0.19521996, 0.022412928, 0.22654696, -0.16373251, -0.2004837, -0.084836096},
{0.14873157, -0.7246892, -0.05765336, -0.1241939, 0.23393965, 0.054260712, -0.059216663, -0.027661288, -0.18081903, -0.1618171, 0.1986246, 0.17862082, 0.026688334, -0.13496338, -0.30400664, 0.054365017},
{0.30474958, -0.5235317, 0.15369642, -0.11449261, 0.40013498, 0.19169775, -0.12439382, 0.20862034, -0.19272366, -0.25057808, 0.17968969, -0.11416216, -0.17403711, -0.25284627, -0.33945534, -0.0038021067},
{0.42657503, -0.14063703, 0.13835388, 0.1575252, 0.14644273, 0.22881824, 0.006561736, 0.14988048, -0.053453244, -0.22311245, 0.121931784, -0.16960078, -0.21752712, -0.22553381, -0.1550074, -0.14883322},
{0.26218852, 0.10246755, -0.022749504, 0.19271371, -0.00032298677, 0.0010036442, 0.032623164, 0.11879611, 0.086493984, -0.12523714, 0.09876762, -0.16556847, -0.032391228, -0.084661864, -0.08373715, -0.2566934},
{0.21419656, 0.08139752, -0.12284285, 0.24326403, 0.07219577, -0.04728522, 0.13864383, 0.032878436, 0.12152304, 0.032884218, 0.09384329, 0.027384885, -0.16970927, -0.06672059, -0.08540878, -0.14403087},
{0.016996592, 0.030268578, -0.0072124926, 0.08920584, 0.115782805, -0.06800472, 0.17625643, 0.0005550687, 0.21587428, 0.037301186, -0.020823324, 0.04876426, -0.04440506, -0.037579313, -0.089958906, -0.1441309},
{-0.03988508, 0.04612207, 0.06725011, 0.12335111, 0.056490045, 0.014900029, 0.063214965, 0.009365556, 0.20293614, 0.07788693, -0.120818414, -0.06718743, -0.05867871, -0.098685905, -0.10209123, -0.051985327},
{-0.1883441, 0.00050300773, -0.018125927, 0.18977197, 0.07921095, -0.04847644, 0.057894975, 0.036369067, 0.22817534, -0.023471536, -0.05209772, 0.029096872, -0.22821558, -0.03383957, -0.0995819, 0.037836798},
{-0.27787706, -0.06729643, 0.06726779, 0.24928364, 0.041861087, -0.27373636, 0.007396678, -0.025553316, 0.19352761, 0.021064395, -0.09342836, -0.0071263956, -0.09744239, -0.07580929, -0.09453104, 0.13406068},
{-0.22437721, -0.022259645, -0.027759299, 0.023918577, 0.13469519, -0.3946591, -0.09889204, 0.09509426, 0.18774131, 0.040174775, -0.14503977, -0.1012562, -0.15129514, -0.21271689, -0.06562574, 0.12135567},
{-0.2782224, -0.087983, -0.054388274, -0.21356516, 0.25306976, -0.3578488, -0.1341105, 0.116438195, -0.010175381, 0.025682556, 0.17743216, -0.040137216, -0.0048688143, -0.29490235, -0.1106214, 0.26424655},
{-0.2804357, -0.045581438, -0.1436498, -0.60891384, 0.32131782, -0.13221192, -0.245347, -0.067304395, -0.29277787, 0.030205298, 0.40808243, -0.12773003, 0.18030271, -0.23373625, -0.098524965, 0.31160077},
{0.14725094, 0.088347524, -0.19682886, -0.61619216, 0.4670053, -0.020393135, -0.21114995, -0.09390545, -0.35287875, 0.028641852, 0.5697212, -0.1089203, 0.15146858, 0.24222094, 0.015632102, -0.2412742},
{0.15036945, 0.058458626, -0.2871595, -0.47927895, 0.3723262, -0.13006386, -0.098998435, -0.017153326, -0.20190741, 0.14417467, 0.34209433, -0.025151718, 0.06164354, 0.38468233, 0.13595794, -0.4250087},
{0.056996148, -0.10719071, -0.077486135, -0.16701813, 0.12220598, 0.013741884, -0.13930868, 0.09032659, -0.078543834, -0.050845973, 0.037893772, 0.0981637, 0.08523813, 0.0051847184, -0.09622477, -0.10796274},
{0.043676063, 0.032430626, 0.033976793, 0.12794244, 0.070955254, -0.111762926, -0.027240006, -0.021458305, 0.014634453, -0.0838258, 0.06416972, -0.06736974, 0.065711, 0.027685385, -0.017040221, 0.040537868},
{0.08243396, 0.22866425, 0.024859563, -0.060092602, 0.14027913, -0.07187638, 0.09939328, 0.10534353, 0.100576244, -0.16334991, 0.0037699998, 0.09944306, 0.1643248, -0.10041945, -0.034488153, 0.021987213},
{0.14214478, 0.1597698, 0.054237194, -0.09281087, 0.21139368, -0.015692683, 0.21525225, 0.25960687, 0.23096502, -0.2005285, -0.22487748, 0.046067066, 0.18404119, -0.19235614, -0.07554294, 0.028349975},
{0.0963358, -0.16075186, -0.06482765, 0.019140119, 0.13340293, -0.03357075, 0.12952015, 0.25960732, 0.11453323, -0.08381876, -0.20500198, 0.0827287, 0.08090502, -0.1347159, -0.20299113, -0.0032661967},
{0.062610336, -0.08492324, -0.18810616, 0.062085643, 0.24102208, -0.1357956, -0.09746005, 0.17434567, 0.1282833, 0.06921676, -0.14218092, 0.14137474, -0.13617453, -0.043079596, -0.07874691, -0.2600179},
{-0.034848124, -0.14100438, -0.44572204, 0.013818734, 0.14650175, -0.2655426, -0.15180571, 0.21450785, -0.021673603, 0.047748175, -0.15711686, 0.12216991, 0.012423781, 0.026345529, -0.025646828, 0.017542943},
{-0.017237375, -0.12339451, -0.37466848, 0.20001273, 0.03836678, -0.33650613, -0.050979454, 0.14812699, -0.22353967, -0.075988084, -0.09540668, 0.20918037, 0.07791484, -0.16804226, 0.13344732, 0.17453346},
{0.017287334, -0.22796863, -0.45600143, 0.19528605, -0.08305607, -0.121639, -0.045701288, 0.16410075, -0.15649328, -0.12464827, -0.0711569, 0.099917084, 0.1353179, -0.18002152, 0.114695825, 0.075520575},
{0.091392234, -0.30439922, -0.23951793, 0.17648779, -0.11060292, -0.08141581, -0.096050404, 0.18212652, 0.010310554, -0.027898319, 0.022944853, -0.024609188, 0.12383426, -0.0468612, 0.0080771465, 0.022493241},
{0.07195082, -0.299922, -0.27767932, 0.14108296, 0.0068513067, 0.085366525, -0.038086604, 0.1693389, 0.021139484, 0.04657577, -0.10903326, 0.05859832, 0.121281944, -0.13169913, 0.08914558, -0.031082518},
{0.11613383, -0.3024463, -0.25901097, 0.101316415, -0.054521155, 0.08360925, 0.042085696, -0.027699675, 0.05072253, -0.032604743, 0.038952988, 0.22825778, 0.20549396, -0.11071901, 0.10047682, -0.16462539},
{0.18529801, -0.52315915, -0.17384706, 0.13712527, -0.1660515, 0.03833962, 0.16495833, -0.0442338, -0.062191714, 0.014913132, 0.100111544, 0.062295973, 0.3014357, -0.14364552, 0.13588667, -0.17110287},
{0.28425285, -0.519668, -0.047385238, 0.023784777, -0.10382264, 0.10713971, 0.22900666, -0.11843094, -0.14274888, 0.05702067, 0.26703072, 0.09808314, 0.32404578, -0.21283416, 0.03088861, 0.05697262},
{0.22028601, -0.60950285, -0.013302743, -0.08361407, -0.020589208, 0.1608745, 0.06711303, 0.030408626, -0.22003923, 0.10223698, 0.39100897, -0.0185168, 0.0077121016, -0.21393415, 0.022990877, 0.12052176},
{0.3384741, -0.32744172, 0.1741868, -0.030006073, 0.2754071, 0.21588989, 0.08148407, 0.28129473, -0.10421789, 0.058941294, 0.21318105, -0.050190214, -0.31291598, -0.17007656, 0.04429542, -0.100174345},
{0.3201284, -0.098764375, 0.10327988, 0.13577093, 0.1345195, 0.009720946, 0.15074754, 0.21821757, -0.12460259, 0.11664829, 0.09222205, -0.0418341, -0.23136231, -0.14241657, 0.033739187, -0.16578153},
{0.11262402, 0.003499567, 0.09293517, 0.16624482, -0.039701566, -0.026236415, 0.22380635, 0.2836829, 0.03996568, 0.19551504, -0.04191786, 0.105618894, -0.18936303, -0.180122, 0.012779786, -0.23767354},
{0.11630951, 0.06417206, -0.02944967, 0.17485794, 0.009216938, -0.12626426, 0.1643608, 0.14251126, 0.11981925, 0.043409117, -0.021218084, 0.14315093, -0.1406478, -0.08336792, -0.11950838, -0.030709641},
{-0.006662934, 0.05782706, -0.0025110024, 0.0700429, 0.11057275, -0.107918724, 0.15956604, 0.07021105, 0.2015461, 0.00094269996, -0.033075325, 0.18644634, -0.15982336, 0.006554921, 0.007545791, -0.10784696},
{-0.08384047, -0.1912205, -0.08873462, 0.070224546, -0.03554096, -0.06726749, 0.053920813, -0.059320163, 0.13145575, 0.119922124, -0.16682698, -0.04980445, -0.13162668, 0.17316283, 0.057279736, -0.094455644},
{-0.15549618, -0.14646621, -0.058812942, 0.16851284, 0.09382139, -0.11486272, 0.1284972, 0.082655735, 0.20413832, 0.16894946, -0.15649925, 0.08751674, -0.12672593, 0.043285824, 0.05685767, 0.0882746},
{-0.2879474, -0.111049935, -0.049196154, 0.25542396, -0.04981335, -0.37405768, 0.005852237, 0.13619292, 0.20151588, 0.17666653, -0.31548473, -0.036304563, -0.07387908, -0.01699209, -0.07295558, 0.16063899},
{-0.37198645, -0.0658354, -0.09745558, 0.22168331, -0.04568722, -0.35874158, 0.015048784, 0.17829841, 0.18590431, 0.033763554, -0.32547352, 0.15399888, -0.13950653, -0.27462396, 0.0023784868, 0.30540782},
{-0.24032551, -0.04140847, -0.0026797715, -0.09388263, 0.02770589, -0.4001008, -0.1594906, 0.16456583, 0.11994673, 0.12319728, -0.30693766, 0.17435075, -0.064156756, -0.36247677, 0.033012755, 0.3381064},
{-0.3287926, -0.08599595, 0.07761266, -0.36234194, 0.04681964, 0.094404235, 0.070774294, 0.07485765, 0.13567139, 0.10992217, -0.230264, -0.2975634, 0.15813234, -0.44909203, -0.20088707, 0.46106225},
{-0.10315929, -0.043350957, 0.055555675, -0.5863722, 0.19479592, 0.28062558, 0.14623539, 0.0011395331, -0.0028349692, 0.18963261, -0.014127984, -0.31258965, -0.1844832, -0.028010517, -0.10898012, -0.15822978},
{0.02328068, 0.09335844, -0.0046636066, -0.4271368, 0.2365545, 0.31013957, -0.025579799, 0.030084174, 0.06428709, 0.12881206, 0.26706675, -0.21090312, -0.045250304, 0.23141252, -0.12982476, -0.4572162},
{0.036582477, 0.062048595, 0.1560304, -0.06367842, 0.20310058, 0.027530398, 0.012436451, 0.05397408, 0.14708896, 0.005175171, -0.19822924, 0.018217549, -0.093220524, -0.12765332, -0.21185048, -0.15927467},
{0.06986222, 0.080930695, 0.05199554, -0.0636496, -0.13466494, 0.1389297, 0.045954734, 0.010943037, -0.028060181, -0.09137476, -0.04076258, -0.066582136, 0.06874563, 0.0059500113, 0.055919647, 0.06445113},
{0.01895062, 0.1652594, -0.11850173, -0.00032015363, 0.062458012, -0.15338577, -0.021143693, 0.12308516, 0.15710258, -0.09513318, 0.021087917, 0.047650017, 0.16031332, 0.0064107417, -0.040428463, 0.11961617},
{0.15968199, 0.25999254, 0.05829214, -0.14335921, 0.2352285, -0.18165588, 0.124639705, 0.2701457, 0.1886788, -0.31890795, -0.30120167, 0.09717749, 0.2976449, -0.10520936, -0.15449668, -0.09634994},
{0.08898927, -0.091456816, -0.03602513, -0.08292799, 0.08992467, 0.02777766, 0.03992025, 0.1993354, 0.12368191, -0.068105765, -0.18506172, 0.17755722, -0.050615914, -0.10183995, -0.23903275, 0.1289019},
{0.06873181, -0.26186597, -0.34499976, 0.14294314, 0.16132729, -0.21382217, -0.12305692, 0.24910916, 0.10607068, 0.0013243556, -0.057803947, 0.17792833, -0.13645858, -0.12822984, -0.01675148, -0.04787395},
{0.11030418, -0.19935852, -0.3733936, 0.1919821, -0.042475678, -0.27793834, -0.1461682, 0.17920917, -0.14401126, -0.025927933, -0.15177195, 0.12747996, 0.013987991, -0.1864002, 0.020868754, -0.08132515},
{-0.04596723, -0.35048476, -0.42657724, 0.17626123, -0.14415783, -0.13865247, -0.033944298, 0.14473185, -0.043247823, -0.08844024, -0.23609746, 0.124897726, 0.09515766, -0.25773534, 0.18566227, 0.067860596},
{0.03827794, -0.34672394, -0.30622163, 0.22487843, -0.009899179, 0.027057922, -0.10468328, 0.14062826, -0.060069457, -0.117945455, -0.037233524, 0.07255371, 0.098957576, -0.18248914, 0.23864368, 0.09636392},
{0.068815954, -0.38907793, -0.23625502, 0.16077694, -0.091427274, 0.12531658, -0.02259564, 0.005688132, 0.037397847, -0.09559515, -0.07010659, 0.07675134, 0.10780832, -0.19141039, 0.095886566, 0.00618581},
{0.030463766, -0.42067993, -0.119261086, 0.09660361, -0.06439918, 0.07712874, -0.04706223, 0.0015721429, 0.054428, -0.0021337853, 0.036777955, 0.06966116, 0.22545081, -0.18692735, 0.2394756, 0.0027579684},
{0.0753351, -0.4576896, -0.13969164, 0.20756185, -0.13267308, 0.051160727, 0.068015344, -0.14954653, 0.040767934, 0.03788599, 0.11257033, 0.015565863, 0.22493635, 0.050658263, 0.22479203, 0.0126568405},
{-0.0084420685, -0.5246097, -0.08111203, 0.12881404, -0.24572407, 0.052822005, 0.11145022, -0.023335157, -0.054560836, 0.034806147, 0.21388154, -0.061802402, 0.30690572, -0.11323201, 0.27574784, 0.018179705},
{0.04482546, -0.33940533, 0.038353134, -0.089032136, -0.15770079, 0.15896317, 0.056016054, -0.03364568, -0.07942226, 0.17370608, 0.35732195, -0.121006355, 0.2154269, -0.06823882, 0.23584959, 0.03958809},
{0.23839344, -0.24038588, 0.13316593, -0.19052759, 0.065562926, 0.006679886, 0.0011244705, 0.08060437, -0.15833442, 0.30093077, 0.29201114, -0.036943503, -0.12612574, -0.11160959, 0.22506568, 0.06866388},
{0.23695572, -0.0637943, 0.21066396, -0.043047376, 0.118284605, 0.11714821, -0.038755193, 0.24719858, -0.122654565, 0.24470526, 0.056781, -0.06578705, -0.31092754, 0.0019166972, 0.23529248, 0.0019723033},
{0.1508735, -0.083478905, 0.03830921, 0.13064016, 0.0459183, -0.033266798, 0.116533086, 0.3969973, -0.15051693, 0.21073857, -0.088774405, -0.019506615, -0.19985168, -0.182057, 0.13238287, -0.033823326},
{0.012699078, 0.0045603057, 0.04423856, 0.25832853, -0.052951336, -0.09595196, 0.077192694, 0.3152661, 0.13826497, 0.18713894, -0.00034008062, 0.11058991, -0.16463962, -0.16428511, 0.08919712, -0.17731436},
{0.08401969, -0.0024203786, -0.04346198, 0.17355314, -0.08780447, -0.02749706, 0.14494537, 0.12143654, 0.11914268, 0.10671425, -0.008519501, 0.10182738, -0.11492983, -0.07499722, 0.028071124, -0.10279431},
{-0.057850864, -0.02384798, 0.03536723, 0.15805453, 0.0061353287, -0.01200981, 0.15979101, 0.004402503, 0.1083061, 0.046243116, -0.11826302, 0.058951642, -0.05422214, 0.10370672, 0.030079136, -0.14183024},
{-0.18598542, -0.17830758, -0.108017184, 0.14412235, 0.04103437, -0.14886542, 0.13867886, 0.042103026, 0.14806914, 0.14492433, -0.09126377, -0.042647712, 0.014602397, 0.09821945, 0.07037664, -0.03816869},
{-0.101487964, -0.1272143, 0.04746667, 0.21580529, 0.04707484, -0.16789846, 0.0030637903, 0.14611313, 0.05011029, 0.08506457, -0.25413218, -0.043987457, 0.048107076, 0.051100962, 0.11733574, -0.10924074},
{-0.12715039, -0.04809572, 0.06813934, 0.27284306, -0.11887546, -0.17093472, -0.018722927, 0.22851747, 0.2383047, 0.0027496023, -0.23147644, 0.09064581, -0.053883668, 0.039476074, 0.12179203, 0.093252264},
{-0.08436798, -0.08409277, 0.028503744, 0.2354983, -0.07846586, -0.3010247, -0.072078325, 0.05770977, 0.22565071, 0.07507207, -0.29568702, 0.13195677, 0.09922753, -0.26195496, -0.078870654, 0.27953148},
{-0.17717738, 0.007857096, 0.057089742, -0.08038034, -0.2875247, -0.106944524, -0.14967132, 0.055927828, 0.123291224, -0.032036304, -0.3169197, 0.23694775, 0.24023528, -0.33148587, 0.04234619, 0.47224748},
{-0.25179452, 0.010244804, 0.2952282, -0.33865, -0.22218002, 0.054221507, -0.1761234, -0.2502763, 0.10670383, -0.024895832, -0.35156846, -0.0056321565, 0.15757054, -0.2360794, -0.22713648, 0.39303914},
{-0.060978852, 0.045246307, 0.2361168, -0.53290397, -0.07439083, 0.3930461, 0.065821506, -0.03950519, 0.26737955, 0.03137332, -0.15098545, -0.2629934, -0.07010922, -0.044136208, -0.07832757, -0.034089483},
{-0.16183639, 0.16132909, 0.0992357, -0.4399967, 0.004791088, 0.19172284, 0.020883927, -0.16963543, 0.3649364, 0.220409, 0.13838047, -0.36648116, -0.31782565, 0.24278213, 0.0450806, -0.3976865},
{-0.22552912, 0.0034531727, 0.15462396, -0.26517546, -0.10016491, -0.004331943, -0.20022216, -0.070810735, 0.13278222, 0.1277351, -0.058362145, -0.011541003, -0.19564752, 0.116652355, -0.048889033, -0.21095836},
{-0.07509975, 0.048071295, 0.13569625, -0.11780043, 0.16486563, -0.13992973, 0.13254628, -0.113351, -0.11725241, -0.10938413, 0.02632644, 0.0378089, 0.16875808, 0.07248429, 0.07977823, 0.027850742},
{0.1245927, -0.120358095, -0.14057343, -0.045540772, 0.033370633, 0.07772666, 0.20051578, 0.17535257, 0.057041872, -0.13190351, 0.11398861, 0.17101859, 0.013145422, -0.16192444, -0.07502625, -0.08072293},
{0.16447979, 0.087557785, -0.03737627, -0.12039737, 0.19321571, -0.23591788, 0.08010575, 0.21549024, 0.15390855, -0.21515386, -0.16684829, 0.0462666, 0.1062595, -0.012039689, -0.1860703, -0.1889921},
{0.06355031, -0.17556053, -0.090251766, 0.022185199, 0.12055724, -0.10085629, -0.0018093023, 0.23982435, 0.072225094, -0.062442962, 0.0037039493, -0.04835569, -0.068923205, 0.032825015, -0.11597835, -0.0101634795},
{0.12326119, -0.34650934, -0.40298095, 0.18767606, -0.09166801, -0.014461814, 0.07283752, 0.16663481, 0.05877807, -0.061701708, 0.02268725, 0.123306744, -0.026982823, -0.13387007, 0.17439713, -0.0933584},
{0.03038683, -0.26674247, -0.20464519, 0.16752927, -0.18337567, -0.0065516215, -0.023340069, 0.19248243, -0.071376614, -0.22442515, -0.22670712, 0.007566749, 0.16798627, -0.22113572, 0.18050532, 0.14742917},
{0.018654527, -0.40452126, -0.16480772, 0.13845071, -0.13697939, -0.0071745208, -0.14878239, 0.02771833, -0.041881837, -0.085154146, -0.22180116, 0.010980969, 0.086181, -0.16324657, 0.11350306, 0.097209185},
{-0.013084198, -0.30373996, -0.20977905, 0.26427034, -0.1877415, 0.07249474, -0.17210591, -0.09003181, 0.06907895, -0.14871588, -0.14167204, 0.07002961, 0.17910184, -0.109973595, 0.28106368, 0.0858906},
{-0.0059667355, -0.40452597, -0.13391593, 0.10586776, -0.1547807, 0.18922572, -0.15445209, 0.026283443, -0.00622308, -0.1420044, -0.04777359, 0.03433684, 0.12046368, -0.09766462, 0.21836749, 0.17430061},
{0.002172452, -0.33500957, 0.056472164, 0.13584137, -0.11639336, 0.17663364, -0.09723737, -0.064335965, -0.02541982, -0.060508672, -0.07806642, 0.023034662, 0.20045038, 0.048581846, 0.26825523, 0.03371662},
{0.015740221, -0.23305218, 0.06785055, 0.17714192, -0.16794178, 0.0033712755, 0.074361496, -0.049280874, 0.053900126, 0.10032843, 0.15583706, 0.12139438, 0.18847512, -0.083801165, 0.21430592, 0.052142},
{-0.00670534, -0.18129012, 0.0615291, 0.093947075, -0.15465793, -0.106418125, 0.12347224, -0.055693988, -0.02382607, 0.17027512, 0.16373836, -0.16923586, 0.18809257, -0.049144436, 0.20928732, 0.11135796},
{-0.08980206, -0.10475394, 0.0885446, -0.026172593, -0.12030236, 0.026687209, 0.12716986, 0.045878436, -0.09950959, 0.20281878, 0.17418568, -0.022051863, 0.07000526, -0.09681979, 0.3645627, 0.1020816},
{0.049318615, -0.104747854, 0.18419193, -0.13241665, 0.06856734, 0.09049897, 0.033364236, 0.17542502, -0.08034804, 0.29678136, -0.04759875, -0.10083968, -0.22488745, 0.03774022, 0.16965145, 0.16281238},
{0.117939346, -0.10052056, 0.14944169, -0.046835694, 0.028042534, 0.06030114, 0.053766426, 0.37568334, -0.12317708, 0.23683345, -0.059390515, -0.16084097, -0.13347444, -0.021442305, 0.23383255, -0.016706392},
{0.16154042, -0.030457659, 0.078902796, 0.020225067, 0.05291605, -0.08490563, 0.09493713, 0.17728764, -0.040031318, 0.3495814, -0.11973551, -0.068242356, -0.18706815, -0.09945708, 0.12089149, -0.089435786},
{0.1788451, 0.009378301, 0.034151394, 0.16015397, -0.07383753, 0.016589487, -0.013634127, 0.21459225, 0.011195393, 0.19893676, -0.013800099, 0.042562265, -0.0625509, -0.17873842, 0.15222508, -0.20676391},
{-0.01124765, 0.024740668, -0.05043439, 0.21541998, -0.041185424, -0.014055253, 0.18395948, 0.2637594, 0.15550274, 0.15656205, -0.051041406, -0.07025092, -0.008817277, -0.14269213, 0.17829782, -0.16381228},
{-0.039578624, -0.014941527, -0.0037262102, 0.104205914, -0.1013193, 0.01336117, 0.09241404, 0.16262461, 0.19977365, 0.10149243, -0.038464013, -0.0001066328, 0.011183926, 0.0007572472, -0.044286877, -0.16285175},
{-0.13835676, -0.118616395, 0.10656162, 0.19950627, -0.047648635, -0.059502456, 0.12538129, 0.15123418, 0.24686639, 0.095757544, -0.020086464, -0.013451703, 0.1535865, -0.05409989, -0.006185033, -0.25550675},
{-0.07259046, -0.04834237, 0.079682805, 0.24452713, -0.11348695, -0.10164597, -0.0014598971, 0.005991438, 0.1554942, 0.027815457, -0.12564258, 0.122497775, 0.03728214, -0.044306632, -0.070599884, -0.15455039},
{0.019555116, -0.008153553, 0.09018733, 0.30260748, -0.104300804, -0.09634709, 0.11434242, 0.02535038, 0.16915159, 0.03063738, -0.05162161, 0.1735454, 0.011205213, -0.12206391, -0.03327036, 0.07667464},
{0.061822046, -0.08525271, 0.14112788, 0.22544897, -0.1859493, -0.03900752, -0.046882324, 0.047995012, 0.084289156, -0.06326497, -0.07988751, 0.15922345, 0.045626383, -0.20480047, 0.012077102, 0.09264268},
{0.017869206, -0.061796825, 0.11531036, -0.15672514, -0.2573521, -0.020219723, -0.018234862, -0.07358246, 0.11124527, -0.11297087, -0.043794945, 0.2910641, 0.25936487, -0.1175374, -0.07469713, 0.2787118},
{-0.02824175, -0.0052136253, 0.17337564, -0.31498432, -0.12883618, 0.011381694, -0.0944713, -0.2981046, 0.024702996, -0.11863561, -0.011234234, 0.112470224, 0.24340865, 0.019908631, 0.00418985, 0.33636987},
{-0.05072816, 0.030944962, 0.12520577, -0.2829021, -0.20721461, 0.09772741, -0.03843476, -0.2601688, 0.33275276, 0.18510559, -0.17872597, -0.2309163, -0.15871263, -0.011221258, -0.019859457, 0.06396743},
{-0.1354285, 0.014911555, 0.20277734, -0.2922389, -0.04103222, 0.34860373, -0.33402726, -0.17107657, 0.40571484, 0.3699952, -0.11391542, -0.3103311, -0.35048336, 0.270495, 0.0218109, -0.35632107},
{-0.066355236, 0.08437969, 0.21608903, -0.1781149, -0.030771602, 0.0683194, -0.12735757, -0.092481874, 0.19111896, 0.21208383, -0.12431775, -0.18686359, -0.15701292, 0.04849913, 0.082705356, -0.07636144},
{-0.06087567, 0.033684522, 0.056174967, -0.0831191, 0.07678085, -0.024211451, 0.08192425, -0.15241699, -0.021938166, -0.059632625, -0.003115716, 0.11743326, 0.045844033, 0.105190836, 0.10966756, 0.02674083},
{0.035783097, -0.124929994, -0.11089531, -0.023432987, 0.085156225, 0.1407368, 0.11929771, 0.027965566, -0.09438404, -0.07782581, 0.08860795, 0.01617895, -0.054071125, -0.12231302, 0.13253917, -0.044161126},
{0.31726345, 0.15191205, 0.07117982, -0.20587583, -0.045952883, 0.21708395, 0.10700399, 0.17651968, 0.020824056, -0.085637294, 0.13507912, 0.009017092, 0.13118108, -0.07069975, 0.055845045, 0.05774871},
{0.028168513, -0.13956374, -0.023457138, 0.06264427, -0.147846, -0.05426237, 0.08184302, 0.10086124, 0.15142922, -0.04788085, -0.14085703, -0.15643963, 0.013824535, 0.14130528, -0.012619064, -0.09824941},
{0.003996037, -0.24398206, -0.096717745, 0.043064956, -0.111984424, 0.14977695, 0.105167836, -0.029866587, 0.28876865, -0.08058497, -0.043000076, -0.04024096, -0.031802677, 0.18876554, 0.07317719, -0.1243373},
{-0.1395147, -0.34049833, -0.010268074, -0.017745921, -0.1792887, 0.09664624, -0.14061171, -0.16174226, 0.12473746, -0.11521931, -0.046879217, -0.07092787, -0.015803352, -0.15754788, 0.1333697, 0.06983689},
{0.013978006, -0.32542765, 0.05651946, 0.10913142, -0.07799584, 0.100216806, -0.20035188, -0.059679333, 0.13384742, -0.109938055, -0.2731215, 0.005436002, 0.06373356, 0.0017025433, 0.20426595, 0.024279326},
{-0.16161782, -0.28704843, 0.060223687, 0.13748194, -0.11867005, 0.061237603, -0.09573776, -0.077799164, 0.17911297, -0.10347467, -0.1995762, -0.06929357, 0.17857133, -0.14354281, 0.17389643, 0.20035172},
{-0.0934633, -0.24384388, 0.054659963, 0.149318, -0.1870895, 0.16181739, -0.11250674, -0.1448421, 0.0036234988, -0.09356206, -0.31055242, 0.04037727, 0.1416507, -0.12447011, 0.3553274, 0.05495755},
{-0.061734628, -0.111802444, -0.0037881462, 0.1257869, -0.18188447, 0.081513785, -0.050574895, -0.070547305, 0.014275186, 0.050110765, -0.2910477, 0.11664049, 0.24225146, -0.041920055, 0.28081676, 0.07370751},
{-0.10802837, 0.016327128, 0.007910091, 0.18476707, -0.13812864, -0.035011213, 0.0037723356, -0.0535653, -0.036436852, 0.084683165, -0.070452265, 0.0009872654, 0.085750476, 0.004782236, 0.2837517, 0.15207385},
{-0.14447163, -0.036501072, 0.14852364, 0.101423785, -0.12829663, -0.13753746, 0.13010249, 0.046088215, 0.031413883, 0.17371714, 0.041397493, 0.08537578, 0.050529096, -0.08197336, 0.2757662, 0.19348256},
{-0.11948357, -0.08284429, 0.16198546, -0.045516763, -0.050856598, -0.040037513, 0.07742509, 0.14817601, -0.118573345, 0.19752309, 0.09251696, -0.014892535, -0.04834242, -0.107972756, 0.34153697, 0.16686943},
{0.08064965, -0.094332494, 0.21640916, -0.19940537, 0.0741929, 0.014349039, 0.06536164, 0.2585908, -0.05794107, 0.3204493, -0.015188042, -0.12844081, -0.086175315, 0.047461603, 0.2211807, 0.14667012},
{0.18443897, -0.11939975, 0.3476941, -0.12990883, -0.12898187, 0.046941675, 0.06337011, 0.32594165, -0.006605916, 0.307739, -0.14062522, -0.032222137, -0.00010622152, -0.09236974, 0.26367316, 0.13188736},
{0.13549083, -0.10997055, 0.17414147, 0.061858617, -0.05639812, -0.011623511, 0.022219026, 0.23935562, 0.101585075, 0.25721702, -0.013404865, -0.096858926, 0.064614, -0.14530386, 0.2133724, -0.1070792},
{0.13149957, 0.0054506757, 0.027874261, 0.087558255, -0.12874056, 0.069193184, -0.0177678, 0.17684995, 0.15362218, 0.2679235, -0.015283911, -0.09633186, -0.020836985, -0.14676821, 0.19549091, -0.116882406},
{-0.037980024, 0.015843742, 0.056805737, 0.27784747, -0.06401761, -0.0852503, 0.13081296, 0.08466658, 0.22798075, 0.026798422, 0.0247024, -0.04259634, 0.12330716, -0.17958447, 0.04622754, -0.28946275},
{-0.10434341, -0.19424482, 0.14912868, 0.1962876, 0.043760847, -0.15200889, 0.09425618, 0.08100364, 0.20909894, -0.0064465967, 0.13778006, 0.077091336, 0.1308568, -0.014943293, -0.03687222, -0.22967975},
{-0.052552864, -0.20987336, 0.12560381, 0.09663587, -0.06422762, 0.033454705, 0.102295786, -0.07516469, 0.28104007, 0.034829035, 0.06817407, 0.055923384, 0.14761546, -0.0054019354, -0.061625928, -0.1944346},
{-0.03481022, -0.15925206, 0.18696529, 0.20698746, -0.05215126, 0.045715474, 0.0736233, -0.10787257, 0.18713614, -0.10089216, 0.048778873, 0.27172342, 0.07774745, -0.044453543, -0.15275487, -0.058049005},
{0.072006516, -0.04511594, 0.09724423, 0.14572816, -0.06674063, 0.05096205, 0.06195047, -0.13455328, 0.155611, -0.054105416, -0.05624095, 0.21484728, 0.1192493, -0.089545034, -0.10447694, -0.027000263},
{0.21960874, -0.1125889, 0.12570411, 0.039313447, -0.09706181, 0.0272186, 0.21128187, 0.06890289, 0.24334873, -0.17071612, -0.15247981, 0.14954063, 0.12695931, -0.057967093, -0.06286219, 0.033737324},
{0.20639327, -0.23905453, 0.07748248, -0.2619846, -0.14567524, 0.078207836, 0.029648624, -0.18522052, 0.1301602, -0.26502144, -0.034069568, 0.29653385, 0.1796355, -0.026800446, -0.05250616, 0.2043797},
{0.0679113, -0.057926495, 0.28143215, -0.45694086, 0.020265732, 0.028872747, -0.124454774, -0.3897567, 0.10544703, -0.16540237, 0.0027407587, 0.110411875, 0.17961152, 0.09147986, -0.008947315, 0.2629273},
{-0.09248677, -0.07091738, 0.17764905, -0.23639664, -0.2638859, 0.2601513, -0.27233973, -0.39732084, 0.13170612, 0.29151943, -0.11333091, -0.23924635, -0.04508522, 0.18589596, 0.01569647, 0.20327824},
{-0.08652866, 0.042600065, 0.16506504, -0.1892681, -0.13484138, 0.31459624, -0.0007960106, -0.16005896, 0.4039557, 0.21425366, 0.10861074, -0.3043179, -0.19945244, 0.21321474, 0.28774932, -0.27998},
{-0.13265297, -0.051132295, 0.09525996, -0.23834203, -0.041498702, 0.21072716, -0.096374914, -0.11597139, 0.11934891, 0.17904185, -0.117580645, -0.20757805, -0.1423358, 0.2203705, 0.16844378, -0.21700676},
{0.11127018, -0.048911795, 0.05649455, 0.11448151, -0.050817974, 0.037775956, 0.0011353734, 0.06866577, 0.035936724, -0.09786019, -0.035076827, -0.1277767, 0.044111088, -0.06626329, -0.05653899, 0.016886398},
{0.0906975, -0.08970957, -0.038756736, -0.032395933, 0.108005315, 0.11797161, 0.15586025, 0.12823595, -0.039198715, -0.2133167, 0.15242024, 0.12521897, -0.15763992, -0.12597921, 0.11775795, -0.13395914},
{0.11544882, -0.050813667, 0.23431617, -0.14723013, -0.10057582, 0.25324905, -0.03158018, 0.020236935, 0.005151014, -0.07599838, -0.0026346429, 0.0030071265, -0.14217673, 0.06954182, 0.04739118, -0.11754085},
{-0.024684362, -0.16196771, 0.1657358, -0.23363206, 0.034977313, 0.13992049, 0.013273123, -0.08456383, 0.12254972, 0.050137073, -0.00048159464, -0.027711859, -0.10687209, 0.2677763, -0.07975367, -0.09583733},
{-0.106030084, -0.37588462, 0.054003038, -0.09736446, 0.0613463, 0.100787066, 0.014396561, -0.27321607, 0.2783737, -0.003388818, 0.11105113, -0.14461443, -0.124997064, 0.24086939, -0.14901824, -0.05094099},
{-0.15739255, -0.32167917, 0.1410081, -0.015221656, -0.15190011, 0.064851575, -0.11791839, -0.178699, 0.16777661, -0.00698182, 0.11695194, -0.24840438, -0.04793643, 0.052103907, -0.13036439, 0.08010182},
{-0.13030846, -0.1662836, 0.23186031, -0.04292292, -0.08012012, 0.16245164, -0.0948238, -0.17012264, 0.10076988, -0.0022915853, 0.0055543613, -0.19126295, 0.05912741, -0.0240038, 0.076312214, 0.06090944},
{-0.13121997, -0.106194794, 0.109418936, 0.25562567, -0.18406512, 0.18695153, 0.0014582475, -0.03860629, 0.10027007, -0.015567684, -0.23632531, -0.149577, 0.060615752, -0.14241594, -0.016016984, 0.0003712008},
{-0.16387367, 0.025312196, 0.015946869, 0.33802792, -0.04899654, 0.07398177, 0.115420446, -0.122652896, 0.105633534, 0.014114824, -0.4511745, -0.0042565316, 0.09790641, -0.1319641, 0.16568227, 0.12048835},
{-0.18057027, 0.14201637, 0.12019968, 0.16966271, 0.003251815, 0.13284814, -0.009466452, -0.07352254, 0.11130351, 0.057692513, -0.5051973, -0.011593842, 0.12457965, -0.10626828, 0.19277254, 0.15298712},
{-0.20341642, 0.15471826, 0.047042593, 0.021095358, 0.007962726, -0.069986254, 0.005757773, -0.060001887, 0.042412262, 0.081316456, -0.41843182, 0.00012674656, -0.027708482, -0.14659297, 0.17333846, 0.15065165},
{-0.23713244, 0.1112585, 0.19891997, 0.14395733, -0.09957645, -0.1257509, -0.08221787, 0.0002443318, -0.06976007, 0.21888424, -0.33086324, 0.044646617, -0.033515822, -0.016927639, 0.36906493, 0.21665946},
{-0.10274145, -0.05389282, 0.12717563, -0.12391385, 0.011137272, -0.04957273, 0.11985827, 0.1261379, 0.059595127, 0.2962423, -0.18973458, 0.011459116, -0.013856153, 0.034848485, 0.32834804, 0.09780168},
{0.12899916, -0.006716178, 0.32621995, -0.14090528, -0.02486393, 0.033092164, 0.05180841, 0.14576404, -0.010932072, 0.2352533, -0.24630435, -0.11020922, -0.0049874764, -0.037397623, 0.20975032, 0.07400779},
{0.16384813, -0.121724546, 0.14923456, -0.15476207, -0.08603568, 0.06846624, -0.07020113, 0.2930636, -0.0002491431, 0.3111887, -0.14586084, -0.09010799, 0.10277517, -0.120804325, 0.15692836, -0.00046335763},
{0.18504383, -0.14537795, 0.01071299, 0.08099815, -0.11926993, -0.0052967877, 0.023068922, 0.11092776, 0.15084425, 0.19156466, -0.07401218, -0.07380134, 0.112336606, -0.08919194, 0.13544288, -0.16110657},
{0.042852696, -0.10710678, 0.079019934, 0.14825742, -0.12988114, -0.058807313, -0.02184285, 0.20029943, 0.1935969, 0.12347832, 0.008448968, -0.24441467, 0.0093377875, -0.11539748, 0.14178324, -0.16476886},
{-0.24586178, -0.19363317, 0.11518807, 0.15754673, -0.05838059, -0.09962151, 0.026778301, -0.010467296, 0.23928836, 0.03639748, 0.06789284, -0.06863872, 0.0788294, 0.022100497, 0.075637236, -0.2581465},
{-0.15210511, -0.2870208, 0.25259233, 0.17618477, -0.15267232, 0.04687155, 0.106940575, -0.033161297, 0.18949564, 0.074375905, 0.25678074, -0.011901553, 0.19142474, 0.06506273, 0.031126458, -0.24826024},
{-0.08050647, -0.11897677, 0.17072318, 0.14942835, -0.109594874, 0.08183007, 0.11166564, -0.1338949, 0.073903866, -0.032315873, 0.21744476, 0.10641654, 0.09540246, 0.01150707, -0.060513325, -0.043652534},
{-0.020206247, -0.29711336, 0.11059834, 0.1751787, -0.18894461, 0.060729135, 0.16156618, -0.13604966, 0.17991789, -0.0015963879, 0.10484577, 0.22801508, 0.17452772, 0.10621455, -0.06489408, -0.11525105},
{0.17376453, -0.06700392, 0.16906027, 0.017249407, -0.19912702, 0.11865627, 0.058780532, -0.18143284, 0.22953825, -0.06647525, -0.061842196, 0.15356635, 0.16907232, 0.14018881, -0.002181095, -0.071163245},
{0.17000149, -0.26922604, 0.16759457, -0.09713064, -0.15182374, 0.12642156, 0.12503137, -0.20899956, 0.20595653, 0.0078213, 0.02294776, 0.21122842, 0.06886391, 0.14856198, 0.021279275, 0.07199932},
{0.14166066, -0.12185681, 0.12743792, -0.37208366, -0.11253886, 0.07431172, 0.135707, -0.21759224, 0.095826484, -0.07413016, -0.13318023, 0.09302639, 0.039499536, 0.056767836, 0.052143086, 0.12106465},
{0.020050028, 0.041692927, 0.22254933, -0.45565903, 0.0044785216, 0.16649628, 0.037877254, -0.3153203, 0.119396344, 0.008382938, -0.008664791, 0.11519906, 0.029261835, 0.17361812, 0.11269438, 0.13086836},
{-0.28699517, -0.114748284, 0.26833817, -0.3370318, -0.42843688, 0.2665788, -0.32288688, -0.4962039, 0.2776371, 0.37658712, -0.20576191, -0.28410068, -0.11416718, 0.13204737, 0.08875683, 0.076978125},
{-0.16036586, 0.07052852, 0.24149346, -0.236665, -0.19741988, 0.38874924, -0.24822134, -0.27108756, 0.43112326, 0.2655195, -0.18029675, -0.36117285, -0.31237835, 0.34588334, 0.06147944, -0.28178322},
{-0.14849465, -0.055282082, 0.13283646, -0.18712708, -0.17157112, 0.23763439, -0.15174726, -0.0061319475, 0.22734609, 0.113506824, 0.07828153, -0.088022895, -0.053899243, 0.11240442, 0.12997316, -0.1413447},
{0.027833968, 0.058156118, 0.03340134, -0.005957037, -0.0036955178, 0.07314904, -0.06868906, -0.047143362, -0.017233774, -0.08265283, -0.073573045, 0.017654508, 0.017005615, -0.047752947, 0.008948676, 0.021487191},
{0.19093998, 0.08439387, 0.14234541, -0.047158416, 0.040663727, 0.17228578, 0.16683753, 0.09715664, 0.027314456, -0.20987882, 0.13894765, 0.14810959, -0.098098755, -0.11136342, 0.13093565, -0.0195445},
{0.06350506, -0.053814545, 0.10647945, -0.23243605, -0.09181603, 0.36068308, 0.075222746, -0.14114702, 0.06168436, 0.0947637, -0.056507498, -0.01400943, 0.06292639, 0.11331114, -0.027171006, -0.1364311},
{-0.07392266, -0.1331216, 0.3197426, -0.37428156, 0.12494965, 0.18444711, 0.035701893, -0.1328283, -0.01347046, 0.04108302, 0.23555665, 0.12634312, -0.112723626, 0.21119645, -0.2111143, -0.040720776},
{-0.040013738, -0.20357648, 0.19553989, -0.24087223, 0.023341918, 0.051654622, -0.03561011, -0.28028294, 0.16885485, -0.13648978, 0.24736676, -0.102588505, -0.13375278, 0.34509093, -0.15256803, -0.08904782},
{-0.00011247825, -0.14646772, 0.017472308, -0.09711571, -0.12255232, -0.057102755, -0.008489813, -0.31808993, 0.019658692, -0.0054666065, 0.26819226, -0.21669719, 0.07374485, 0.069858536, -0.26539233, 0.037141502},
{-0.05793011, -0.19637518, 0.098415844, -0.111789785, -0.020003332, 0.0055931774, -0.14640771, -0.23195785, 0.041060735, 0.01142602, 0.15125093, -0.2763105, 0.16604531, -0.08616762, -0.17746274, -0.077702425},
{-0.12275484, -0.118118905, 0.033461507, 0.09739182, -0.1636251, 0.032556888, 0.04500197, -0.1301068, 0.08111953, 0.07178148, 0.08790136, -0.156161, 0.057972685, -0.24624413, -0.07811107, -0.08250252},
{-0.21133265, 0.044215515, 0.009006884, 0.18670523, -0.021974185, 0.06454867, 0.038094457, -0.20547235, 0.001556663, 0.10818242, -0.28290427, -0.030965053, -0.020084469, -0.1860922, -0.063326016, 0.10738881},
